432 100
</s> 0.17495 0.12991 -0.044873 -0.019594 -0.050848 -0.095324 0.075186 -0.10831 0.11513 -0.080115 0.019983 0.072287 0.023346 0.16128 -0.08922 -0.10821 0.0003293 0.08362 0.010813 -0.12938 0.084735 0.054373 0.18733 -0.010936 -0.29029 -0.078422 0.055507 0.071591 -0.0058718 0.020229 -0.075761 0.075145 0.068803 -0.19804 0.062677 0.018373 0.1987 -0.12764 -0.027981 0.024276 0.38505 0.11205 0.0080577 -0.072574 0.0097282 -0.20049 -0.035025 0.014958 -0.3013 -0.079319 0.067748 0.33328 -0.26737 -0.16912 0.04165 -0.19634 0.071646 0.045319 0.091213 0.26298 -0.017656 0.11088 0.26028 0.14205 -0.21761 0.27526 0.083103 -0.084389 0.010839 -0.037942 0.018172 -0.055599 -0.088144 0.2428 -0.2709 0.14943 0.15093 0.071553 0.17278 0.0072444 0.046445 0.14937 0.024181 -0.16244 0.11953 -0.10573 0.1242 -0.19748 -0.090978 0.028364 0.1834 -0.042293 0.26933 0.26248 -0.1208 -0.19317 -0.015541 -0.069671 -0.05733 0.080823 
@EPFL 0.18678 0.1225 -0.039177 -0.018991 -0.052162 -0.099783 0.078623 -0.11749 0.10079 -0.090247 0.019266 0.065129 0.011787 0.15531 -0.087532 -0.10717 0.0025268 0.080068 0.01069 -0.11908 0.090867 0.042233 0.18634 -0.0059975 -0.30279 -0.069356 0.051455 0.080056 -0.00091826 0.0043017 -0.063902 0.082824 0.080763 -0.19881 0.074212 0.020392 0.19786 -0.11773 -0.026251 0.035074 0.37987 0.10595 0.0061796 -0.071316 0.01707 -0.20634 -0.025127 0.013726 -0.30226 -0.083813 0.082123 0.32521 -0.26216 -0.18147 0.050294 -0.19382 0.0759 0.044721 0.085305 0.26664 -0.015853 0.11333 0.25869 0.1361 -0.21731 0.27771 0.086342 -0.098052 0.0014499 -0.043901 0.034921 -0.061722 -0.084953 0.24537 -0.2751 0.15616 0.143 0.066628 0.16961 0.012546 0.05908 0.1488 0.014149 -0.16038 0.13433 -0.099446 0.12887 -0.19774 -0.090673 0.031465 0.17689 -0.048962 0.26218 0.2862 -0.12467 -0.18499 -0.025432 -0.078743 -0.049619 0.091459 
the 0.20314 0.12803 -0.039876 -0.043931 -0.042832 -0.11004 0.084675 -0.12339 0.10157 -0.087968 0.0090821 0.067039 -0.0050649 0.15573 -0.093155 -0.1084 0.021302 0.095608 0.012325 -0.10134 0.084906 0.027682 0.16925 -0.011283 -0.30989 -0.078959 0.043779 0.084472 0.0010801 0.0042376 -0.050954 0.078678 0.076511 -0.19893 0.071437 0.01881 0.20604 -0.14368 -0.023625 0.027734 0.37486 0.10441 0.0069656 -0.08287 0.020767 -0.19769 -0.02968 0.018489 -0.28982 -0.083452 0.10732 0.32259 -0.25223 -0.19553 0.050409 -0.19479 0.10055 0.031995 0.063494 0.26282 -0.01596 0.12419 0.26455 0.12176 -0.24464 0.27628 0.067123 -0.083311 -0.0012963 -0.048112 0.041267 -0.076589 -0.092407 0.26259 -0.2683 0.15457 0.15702 0.06714 0.17035 0.019909 0.058073 0.15959 -0.0026824 -0.16155 0.14633 -0.10879 0.15546 -0.19318 -0.078392 0.043156 0.16707 -0.052398 0.25247 0.30525 -0.10368 -0.1907 -0.019589 -0.063794 -0.037356 0.098302 
to 0.20172 0.13249 -0.043459 -0.032601 -0.051804 -0.11094 0.086014 -0.12068 0.10151 -0.086996 0.012802 0.073845 0.0002983 0.16039 -0.088286 -0.11359 0.015686 0.092315 0.012487 -0.11137 0.095448 0.036053 0.18576 -0.0038262 -0.32173 -0.083472 0.052848 0.083241 -0.0092536 -0.001366 -0.060995 0.074379 0.079244 -0.20397 0.073513 0.02764 0.21468 -0.14357 -0.027444 0.031524 0.38183 0.10525 0.0057947 -0.087377 0.020134 -0.21142 -0.025759 0.017174 -0.30685 -0.080274 0.093903 0.33635 -0.26535 -0.20111 0.050196 -0.20226 0.087883 0.034092 0.070742 0.26569 -0.021415 0.12291 0.27059 0.12475 -0.24418 0.28421 0.076588 -0.092675 0.0053759 -0.051402 0.044335 -0.069568 -0.09121 0.26604 -0.27204 0.16452 0.15501 0.076029 0.17464 0.01909 0.057159 0.16343 0.0068301 -0.15923 0.14521 -0.11624 0.15126 -0.19983 -0.088524 0.039513 0.17952 -0.053246 0.2604 0.3011 -0.11465 -0.19027 -0.022288 -0.073617 -0.048962 0.09436 
@EPFL_en 0.18875 0.12516 -0.037855 -0.02417 -0.050656 -0.10541 0.081085 -0.11894 0.1055 -0.091404 0.018734 0.067652 0.0090319 0.16137 -0.087064 -0.10875 0.0081777 0.083557 0.012313 -0.11675 0.090748 0.042485 0.18723 -0.0077603 -0.30822 -0.076813 0.051628 0.079202 -0.0042641 0.0037791 -0.061662 0.080407 0.076229 -0.20179 0.075656 0.020418 0.20496 -0.12944 -0.026175 0.03439 0.38551 0.10735 0.0085779 -0.076079 0.017269 -0.20602 -0.024076 0.018515 -0.30853 -0.081723 0.088742 0.33427 -0.26147 -0.18591 0.049655 -0.19723 0.082962 0.039928 0.08063 0.27056 -0.015405 0.11826 0.26143 0.13442 -0.22474 0.2798 0.083865 -0.096537 0.0013172 -0.045612 0.036334 -0.064613 -0.091077 0.25043 -0.2778 0.16023 0.14647 0.068268 0.17128 0.016194 0.059653 0.15748 0.013223 -0.15788 0.13575 -0.1108 0.13854 -0.19951 -0.088584 0.033554 0.17757 -0.048551 0.26525 0.29467 -0.11926 -0.19021 -0.024873 -0.07747 -0.053195 0.091927 
of 0.19975 0.12992 -0.039409 -0.034229 -0.047499 -0.10819 0.075732 -0.11952 0.10151 -0.083985 0.018653 0.070702 0.0048962 0.16224 -0.094201 -0.11375 0.012642 0.09129 0.0083767 -0.11415 0.084043 0.041438 0.1869 -0.009701 -0.31324 -0.078838 0.051625 0.077969 -0.0089843 0.0066352 -0.067033 0.075941 0.075473 -0.20051 0.076568 0.017826 0.20621 -0.14543 -0.027762 0.037839 0.38885 0.10726 0.013208 -0.07712 0.018586 -0.21129 -0.030877 0.017976 -0.30379 -0.082363 0.091273 0.33065 -0.26791 -0.18925 0.047253 -0.20328 0.097095 0.041108 0.07377 0.26914 -0.025083 0.12145 0.27358 0.13241 -0.23477 0.2864 0.078523 -0.094253 -0.0030026 -0.044388 0.036596 -0.06508 -0.090002 0.26017 -0.27463 0.15722 0.16365 0.069257 0.16953 0.019229 0.06471 0.16507 0.004686 -0.16042 0.14829 -0.10856 0.14298 -0.19818 -0.089156 0.039915 0.1753 -0.055211 0.26017 0.30084 -0.11882 -0.18681 -0.025078 -0.073001 -0.055027 0.092379 
and 0.19659 0.12979 -0.041964 -0.032353 -0.048667 -0.11409 0.086328 -0.12218 0.10326 -0.088216 0.019615 0.072096 0.0028769 0.15953 -0.089069 -0.11305 0.013908 0.095833 0.013945 -0.11544 0.093674 0.046627 0.18672 -0.012023 -0.32031 -0.079366 0.044721 0.084931 -0.0059948 0.0034086 -0.060334 0.075252 0.074266 -0.20132 0.071722 0.022221 0.21534 -0.14084 -0.023959 0.030947 0.38848 0.10806 0.010839 -0.080955 0.015333 -0.2055 -0.026416 0.020513 -0.30871 -0.08532 0.10114 0.34228 -0.26333 -0.19476 0.051504 -0.2017 0.090859 0.030227 0.073966 0.2727 -0.013707 0.12512 0.26899 0.13156 -0.23641 0.2929 0.079313 -0.092678 0.0037164 -0.044084 0.03855 -0.068437 -0.093872 0.26399 -0.27489 0.16579 0.158 0.068744 0.17806 0.015126 0.060589 0.16393 0.0064606 -0.16159 0.14095 -0.1167 0.15511 -0.20488 -0.088536 0.040165 0.18 -0.055433 0.26519 0.30357 -0.1213 -0.19564 -0.020987 -0.078429 -0.054109 0.093199 
in 0.19976 0.13318 -0.039579 -0.034127 -0.04203 -0.11825 0.088088 -0.12577 0.11272 -0.097827 0.02633 0.07248 0.0039014 0.16695 -0.087715 -0.11436 0.017801 0.099357 0.014345 -0.11904 0.090089 0.044143 0.18493 -0.010791 -0.32543 -0.090919 0.046723 0.085016 -0.0074249 -0.0025638 -0.067951 0.08183 0.080326 -0.21103 0.072113 0.017662 0.21636 -0.14771 -0.025462 0.031985 0.39712 0.10675 0.0086834 -0.079662 0.0207 -0.21049 -0.021255 0.015085 -0.32063 -0.081182 0.1043 0.35371 -0.26737 -0.19695 0.050067 -0.20894 0.094292 0.035616 0.078201 0.27981 -0.015763 0.12309 0.26931 0.13265 -0.23507 0.29651 0.085198 -0.09313 0.0005362 -0.052918 0.043857 -0.066355 -0.094317 0.26879 -0.27932 0.17338 0.15169 0.071455 0.17965 0.024308 0.058067 0.16704 0.0084925 -0.16042 0.14564 -0.11474 0.15557 -0.20371 -0.086632 0.035101 0.18433 -0.051528 0.27172 0.31367 -0.12311 -0.20601 -0.024423 -0.08035 -0.055793 0.089573 
a 0.20815 0.12641 -0.036571 -0.035714 -0.049942 -0.12019 0.076868 -0.12389 0.10024 -0.096455 0.0080845 0.077332 0.0054188 0.17371 -0.094547 -0.12515 0.016448 0.095165 0.021774 -0.11544 0.085092 0.04349 0.19128 -0.0099821 -0.31788 -0.085985 0.051743 0.074207 0.0012177 0.0063505 -0.061371 0.084615 0.086609 -0.20825 0.068172 0.025948 0.22069 -0.13937 -0.025941 0.039062 0.39856 0.1065 0.016812 -0.083877 0.020091 -0.21502 -0.032426 0.017147 -0.31703 -0.082152 0.091347 0.34778 -0.27425 -0.19173 0.049448 -0.20494 0.086681 0.033329 0.080898 0.27726 -0.021447 0.12277 0.28299 0.14591 -0.24672 0.28489 0.093801 -0.098597 -0.0053307 -0.053548 0.041141 -0.068642 -0.096581 0.26663 -0.27584 0.17187 0.15305 0.074725 0.1842 0.024493 0.062222 0.16738 0.012431 -0.16885 0.14492 -0.1161 0.15318 -0.21015 -0.087362 0.045456 0.18424 -0.050703 0.28002 0.31129 -0.12373 -0.20175 -0.026733 -0.067119 -0.05333 0.092815 
de 0.166 0.10244 -0.039427 0.0030696 -0.059839 -0.074537 0.051473 -0.09476 0.10876 -0.099289 0.024835 0.056654 0.032353 0.14429 -0.083798 -0.10994 -0.027205 0.052078 0.0073287 -0.13481 0.082719 0.048934 0.17591 0.0044887 -0.27517 -0.059044 0.067114 0.071502 -0.011141 0.014339 -0.079483 0.087075 0.086002 -0.18259 0.071928 0.019057 0.1746 -0.080456 -0.032762 0.04265 0.36559 0.10004 -0.0011978 -0.058438 0.00694 -0.2062 -0.03165 0.022902 -0.29375 -0.077107 0.043742 0.29706 -0.25717 -0.15443 0.039822 -0.18026 0.042098 0.061564 0.10984 0.26096 -0.0049419 0.081086 0.24052 0.13616 -0.17954 0.2642 0.11166 -0.098839 0.0011535 -0.038595 0.014631 -0.040055 -0.073523 0.21682 -0.27201 0.14614 0.11882 0.058217 0.18139 -0.0059363 0.051463 0.11549 0.027709 -0.14483 0.10402 -0.083287 0.089358 -0.19695 -0.089124 0.011658 0.16875 -0.041613 0.25577 0.23053 -0.13422 -0.17006 -0.030785 -0.08294 -0.05135 0.065656 
for 0.20051 0.13692 -0.048673 -0.027656 -0.050919 -0.11599 0.083009 -0.12374 0.10826 -0.093807 0.014125 0.076031 0.0064834 0.16504 -0.0985 -0.11603 0.012783 0.095367 0.010629 -0.11235 0.091415 0.040893 0.1822 -0.0090448 -0.32099 -0.084738 0.047567 0.079937 -0.0036235 0.007648 -0.061362 0.079132 0.075769 -0.21183 0.073756 0.017125 0.2112 -0.13902 -0.023593 0.030304 0.39583 0.11096 0.0072755 -0.082771 0.022927 -0.21194 -0.030585 0.019955 -0.31069 -0.085833 0.09599 0.34502 -0.26905 -0.19404 0.050208 -0.20708 0.089278 0.037659 0.078883 0.27332 -0.01345 0.12342 0.27935 0.13737 -0.24401 0.29901 0.082437 -0.092234 0.0014782 -0.046271 0.035645 -0.070887 -0.090236 0.2686 -0.28489 0.16848 0.15887 0.071147 0.18019 0.024347 0.060313 0.16141 0.0069652 -0.16955 0.14833 -0.11048 0.14998 -0.20092 -0.089863 0.038062 0.17749 -0.055329 0.27295 0.30442 -0.12363 -0.19851 -0.019177 -0.081591 -0.053713 0.0958 
at 0.20106 0.13118 -0.039457 -0.035537 -0.044268 -0.10783 0.085047 -0.11512 0.10248 -0.092676 0.010481 0.07604 0.0078217 0.16181 -0.084274 -0.11574 0.015141 0.090643 0.0060419 -0.11203 0.094284 0.042556 0.17984 -0.0066823 -0.3193 -0.080622 0.04412 0.082543 -0.0085225 0.00018962 -0.060032 0.085931 0.07924 -0.20853 0.068361 0.023554 0.20859 -0.13387 -0.024035 0.034572 0.38429 0.10319 0.0064227 -0.082237 0.021358 -0.20525 -0.025364 0.016363 -0.29954 -0.084268 0.096914 0.33643 -0.26331 -0.19631 0.053031 -0.19985 0.092376 0.035771 0.07411 0.26652 -0.01425 0.11872 0.27262 0.13368 -0.23747 0.2895 0.083334 -0.086617 -0.0043145 -0.051334 0.035733 -0.06853 -0.087314 0.26647 -0.27897 0.16558 0.15628 0.074984 0.17898 0.016166 0.063585 0.15791 0.00078689 -0.15499 0.14321 -0.11345 0.15355 -0.19773 -0.085433 0.035729 0.18189 -0.049521 0.25857 0.30545 -0.11766 -0.18669 -0.025933 -0.081611 -0.052455 0.094632 
on 0.19377 0.12825 -0.041774 -0.028796 -0.044046 -0.10844 0.076465 -0.11521 0.10594 -0.088732 0.015104 0.071386 0.013939 0.15739 -0.086498 -0.10802 0.0066242 0.084931 0.0085263 -0.11351 0.092501 0.043586 0.18341 -0.0065081 -0.30455 -0.084737 0.048853 0.087604 -0.0075842 0.0042434 -0.06135 0.078478 0.080862 -0.1962 0.073258 0.021224 0.20447 -0.13161 -0.025217 0.03577 0.38265 0.10382 0.009542 -0.083966 0.02282 -0.20776 -0.032541 0.018374 -0.29432 -0.077082 0.092565 0.32581 -0.25929 -0.18925 0.0465 -0.19343 0.083116 0.037358 0.075677 0.26125 -0.010538 0.11858 0.26942 0.12727 -0.23546 0.28688 0.074616 -0.095281 0.0018961 -0.044959 0.0359 -0.067038 -0.082686 0.26134 -0.26931 0.15837 0.15575 0.06667 0.16784 0.023445 0.053601 0.15264 0.0069183 -0.16131 0.13823 -0.10865 0.14742 -0.19682 -0.086836 0.033343 0.17124 -0.055365 0.2577 0.28692 -0.11503 -0.19194 -0.017476 -0.077748 -0.053817 0.091325 
#epfl 0.18544 0.12051 -0.038382 -0.022659 -0.049549 -0.10127 0.074452 -0.11545 0.10237 -0.092982 0.021641 0.068854 0.0091339 0.15412 -0.091013 -0.10625 0.0032214 0.082238 0.0089408 -0.11397 0.087833 0.042373 0.17747 -0.0037596 -0.29551 -0.074326 0.052109 0.083524 -0.0030493 0.0063273 -0.061074 0.081612 0.076533 -0.19498 0.072383 0.022212 0.19543 -0.1217 -0.0296 0.030698 0.37622 0.10268 0.0070824 -0.075253 0.014373 -0.20367 -0.028002 0.019396 -0.29459 -0.080678 0.083928 0.32224 -0.25638 -0.18062 0.045111 -0.19524 0.074825 0.040262 0.078329 0.26219 -0.013866 0.10794 0.25772 0.13197 -0.21884 0.27925 0.086628 -0.093607 -0.00074054 -0.043966 0.030693 -0.062351 -0.084538 0.24755 -0.26701 0.15791 0.14086 0.064335 0.17279 0.016735 0.05808 0.14996 0.010491 -0.15274 0.13186 -0.10342 0.1334 -0.19281 -0.085928 0.033866 0.17151 -0.049543 0.25483 0.28179 -0.11851 -0.18472 -0.024002 -0.077865 -0.049473 0.084815 
with 0.20305 0.13217 -0.039624 -0.027774 -0.051992 -0.11465 0.084258 -0.12393 0.10942 -0.09172 0.02182 0.074429 0.0060953 0.16941 -0.09155 -0.11831 0.0067383 0.089311 0.012297 -0.12115 0.09295 0.045029 0.19343 -0.0082254 -0.3273 -0.080608 0.053562 0.079018 -0.0027811 0.0044344 -0.063483 0.083695 0.080945 -0.21181 0.076453 0.021585 0.21149 -0.13801 -0.02885 0.034677 0.40002 0.11232 0.0051922 -0.082789 0.017344 -0.21645 -0.029548 0.023514 -0.31365 -0.084463 0.091966 0.35331 -0.27157 -0.1996 0.052051 -0.20976 0.083565 0.039589 0.08058 0.28074 -0.017718 0.12329 0.27365 0.14336 -0.23718 0.29613 0.092824 -0.097185 0.00061604 -0.052563 0.039709 -0.06545 -0.094868 0.26896 -0.28689 0.17022 0.16272 0.069982 0.18407 0.017384 0.064827 0.16431 0.0099154 -0.16522 0.14154 -0.1148 0.14732 -0.21241 -0.090823 0.03596 0.18525 -0.053701 0.2752 0.3057 -0.12961 -0.20013 -0.022576 -0.081181 -0.056405 0.097773 
via 0.18627 0.12363 -0.042257 -0.023578 -0.052769 -0.09748 0.073884 -0.11572 0.10418 -0.090321 0.019426 0.070835 0.010337 0.15839 -0.086563 -0.10653 0.0038461 0.083629 0.007772 -0.12098 0.088539 0.039617 0.18213 -0.00078469 -0.297 -0.072623 0.054376 0.077936 -0.0071617 0.0045359 -0.065295 0.078109 0.078494 -0.19769 0.068825 0.020303 0.19823 -0.12598 -0.025306 0.031976 0.37291 0.10433 0.0026253 -0.075176 0.014517 -0.20187 -0.026974 0.017338 -0.2959 -0.079118 0.07869 0.32912 -0.26298 -0.18179 0.045962 -0.19221 0.081537 0.041432 0.083156 0.26051 -0.011382 0.10924 0.25395 0.13349 -0.21845 0.27151 0.086634 -0.085244 -0.0010486 -0.044013 0.030821 -0.058927 -0.088043 0.24432 -0.27057 0.1542 0.14773 0.06594 0.17465 0.010685 0.057823 0.15029 0.010379 -0.15607 0.13282 -0.10057 0.12951 -0.1993 -0.090658 0.033769 0.17284 -0.047065 0.25903 0.27736 -0.12083 -0.18607 -0.021106 -0.075439 -0.053118 0.083473 
is 0.20216 0.13598 -0.040707 -0.032236 -0.049823 -0.11277 0.078143 -0.12213 0.11243 -0.089275 0.020025 0.076746 -0.00061488 0.16364 -0.089468 -0.11484 0.0088077 0.095709 0.011403 -0.11605 0.093803 0.044445 0.19316 -0.0047624 -0.32197 -0.079627 0.051948 0.086856 -0.00086548 0.0017833 -0.065177 0.077188 0.079011 -0.20917 0.073252 0.024664 0.21631 -0.14041 -0.024389 0.031951 0.39295 0.10796 0.0095168 -0.079408 0.016693 -0.20784 -0.030461 0.017038 -0.3047 -0.08484 0.095658 0.34276 -0.26892 -0.198 0.051927 -0.20224 0.091536 0.036417 0.077374 0.26922 -0.013451 0.11668 0.27114 0.13752 -0.23481 0.29366 0.083991 -0.09808 -0.0015984 -0.043676 0.035506 -0.071444 -0.093117 0.26625 -0.27929 0.16795 0.15643 0.068168 0.18595 0.023213 0.053052 0.1687 0.0068702 -0.16154 0.14617 -0.10932 0.14292 -0.20831 -0.081714 0.041202 0.18447 -0.049838 0.27031 0.30828 -0.12137 -0.2001 -0.023841 -0.074665 -0.050761 0.096631 
la 0.16719 0.10769 -0.039095 -0.0049485 -0.060268 -0.087454 0.05426 -0.0947 0.10911 -0.10054 0.023266 0.063671 0.016507 0.14735 -0.077165 -0.10919 -0.017057 0.057011 0.0041337 -0.13088 0.077654 0.052276 0.17323 -0.0011317 -0.28467 -0.061653 0.059865 0.070612 -0.012448 0.011384 -0.074724 0.074236 0.0831 -0.17979 0.06886 0.023073 0.17685 -0.091804 -0.027159 0.030123 0.36189 0.099179 0.00080434 -0.057411 0.0082175 -0.19882 -0.025346 0.021663 -0.28924 -0.078853 0.052331 0.30587 -0.25971 -0.15979 0.041359 -0.18109 0.0493 0.051624 0.099048 0.25514 -0.010942 0.090086 0.23855 0.14371 -0.18701 0.26855 0.10533 -0.093791 -0.0027382 -0.038791 0.016892 -0.040947 -0.073181 0.22086 -0.26307 0.14436 0.11336 0.059343 0.17618 0.011055 0.056787 0.12516 0.022079 -0.14756 0.11632 -0.087846 0.10279 -0.19228 -0.089996 0.01794 0.17173 -0.046058 0.25483 0.24385 -0.12425 -0.16723 -0.025996 -0.082669 -0.057081 0.070516 
à 0.16805 0.11446 -0.039903 -0.010569 -0.060249 -0.083929 0.046362 -0.091192 0.11017 -0.096215 0.017451 0.066374 0.027214 0.15125 -0.081018 -0.10394 -0.027394 0.060568 0.0055548 -0.13636 0.077089 0.05586 0.17489 0.0074495 -0.28152 -0.058845 0.071618 0.06248 -0.012198 0.0025183 -0.079904 0.073865 0.0843 -0.17828 0.065105 0.021192 0.18102 -0.093501 -0.034085 0.042754 0.36829 0.098726 -0.0036712 -0.059328 0.014713 -0.2117 -0.041651 0.027307 -0.29117 -0.083235 0.044308 0.31469 -0.27023 -0.15548 0.034939 -0.17991 0.041684 0.061119 0.10964 0.25984 0.0024461 0.083932 0.25385 0.14805 -0.18954 0.2655 0.11388 -0.097136 -0.0021768 -0.041935 0.010277 -0.03824 -0.070533 0.21454 -0.26806 0.14164 0.12539 0.059157 0.17254 -0.0066254 0.056668 0.1178 0.020125 -0.14851 0.1206 -0.080663 0.09963 -0.19173 -0.085655 0.017943 0.17309 -0.048324 0.25941 0.23696 -0.13208 -0.17559 -0.035674 -0.083927 -0.060459 0.072781 
- 0.18289 0.11716 -0.031055 -0.022475 -0.043823 -0.093612 0.079871 -0.11751 0.10316 -0.087803 0.019623 0.060205 0.014156 0.15139 -0.081558 -0.10807 0.0018102 0.075235 0.0091819 -0.11954 0.093143 0.045236 0.18383 -0.0097551 -0.2977 -0.079224 0.050704 0.082073 0.00042185 0.010193 -0.056539 0.081105 0.078714 -0.1871 0.0724 0.017602 0.18616 -0.11835 -0.024856 0.025794 0.37253 0.10734 0.005556 -0.069957 0.023259 -0.19687 -0.031582 0.012012 -0.29245 -0.088371 0.088576 0.33036 -0.25074 -0.17839 0.041367 -0.19546 0.07854 0.033035 0.077255 0.25898 -0.018821 0.11029 0.24719 0.13679 -0.21042 0.27821 0.091188 -0.08706 -0.0022882 -0.036795 0.02666 -0.065357 -0.085136 0.24319 -0.27456 0.15899 0.14636 0.064498 0.17107 0.017933 0.058488 0.15431 0.0063662 -0.15349 0.13078 -0.09971 0.12736 -0.19783 -0.081065 0.032038 0.17232 -0.052068 0.26227 0.27097 -0.12442 -0.1824 -0.027164 -0.076232 -0.056449 0.087255 
by 0.19716 0.13111 -0.044549 -0.022025 -0.050423 -0.10237 0.083039 -0.12004 0.11049 -0.088337 0.021008 0.074387 0.0089672 0.16389 -0.084114 -0.11143 0.012167 0.086542 0.017483 -0.11698 0.087713 0.04133 0.19169 -0.005074 -0.31274 -0.081096 0.053427 0.076192 -0.0057877 0.0049042 -0.064444 0.077852 0.0773 -0.20121 0.069953 0.023372 0.20832 -0.12789 -0.019418 0.03704 0.38735 0.1066 0.0089082 -0.083066 0.014587 -0.20364 -0.029749 0.017849 -0.31031 -0.077113 0.094084 0.33348 -0.26731 -0.18846 0.050669 -0.2003 0.087145 0.038027 0.078556 0.26817 -0.010903 0.11213 0.26846 0.13471 -0.23118 0.28714 0.087769 -0.092838 0.0017189 -0.050028 0.03857 -0.064267 -0.089263 0.26446 -0.2749 0.16429 0.15164 0.069466 0.17455 0.017512 0.054111 0.15808 0.010598 -0.16174 0.14166 -0.10936 0.14472 -0.1955 -0.087418 0.033427 0.17917 -0.044308 0.26944 0.29707 -0.12509 -0.19379 -0.020567 -0.078504 -0.060131 0.090864 
#EPFL 0.19006 0.12537 -0.040135 -0.017743 -0.054277 -0.10507 0.076971 -0.11953 0.10591 -0.097926 0.020393 0.067955 0.012847 0.16382 -0.087414 -0.11015 0.00032987 0.078463 0.014264 -0.12298 0.090432 0.045352 0.1897 -0.0025257 -0.31309 -0.072732 0.052937 0.082385 -0.0062433 0.0053067 -0.067155 0.085474 0.084279 -0.20333 0.074426 0.023199 0.20089 -0.12267 -0.028293 0.037172 0.39058 0.10877 0.0057197 -0.075086 0.017361 -0.21265 -0.029014 0.016347 -0.3108 -0.086862 0.081749 0.33869 -0.2713 -0.18655 0.048697 -0.20356 0.077361 0.04664 0.088268 0.27603 -0.01252 0.11416 0.26424 0.13812 -0.22309 0.29059 0.094787 -0.098762 -0.00065937 -0.047043 0.030955 -0.056197 -0.090683 0.24823 -0.28168 0.16059 0.14527 0.068501 0.18124 0.014488 0.062539 0.15263 0.013089 -0.15947 0.13658 -0.10196 0.13166 -0.20671 -0.090782 0.031433 0.18195 -0.051099 0.27123 0.28808 -0.13218 -0.19071 -0.028165 -0.081862 -0.055025 0.087824 
et 0.17077 0.11434 -0.035373 -0.0090327 -0.060019 -0.083654 0.063498 -0.10168 0.10792 -0.095594 0.027695 0.063776 0.020092 0.15426 -0.087664 -0.10244 -0.019547 0.067178 0.0068842 -0.12861 0.081045 0.055895 0.18103 0.0028665 -0.29268 -0.062074 0.06245 0.074091 -0.010557 0.0069379 -0.076243 0.084176 0.087765 -0.17852 0.071867 0.025553 0.18227 -0.095197 -0.026272 0.04182 0.37137 0.10116 -0.0041265 -0.067005 0.014068 -0.21096 -0.034492 0.019192 -0.2936 -0.081821 0.055715 0.31586 -0.26178 -0.1592 0.040076 -0.18602 0.050127 0.053425 0.10431 0.26483 -0.0070575 0.094689 0.24816 0.14576 -0.19796 0.26397 0.10578 -0.097087 0.0024952 -0.04715 0.021715 -0.043919 -0.08086 0.23096 -0.27557 0.14793 0.12981 0.05307 0.17604 0.0050496 0.052505 0.13056 0.020673 -0.15156 0.11133 -0.083727 0.10301 -0.2051 -0.089241 0.021054 0.17028 -0.050534 0.25559 0.24662 -0.13132 -0.17879 -0.031509 -0.083199 -0.055883 0.077276 
from 0.18905 0.12597 -0.038175 -0.026637 -0.053113 -0.10219 0.077811 -0.11888 0.1057 -0.092956 0.01696 0.066399 0.0057255 0.15966 -0.087175 -0.10561 0.0079507 0.085188 0.0075888 -0.11347 0.086569 0.042326 0.18194 -0.0046864 -0.30868 -0.079567 0.05074 0.077213 -0.0020058 0.0029546 -0.063617 0.074964 0.077762 -0.19775 0.076695 0.021444 0.20392 -0.12941 -0.024768 0.028174 0.38035 0.10562 0.0060265 -0.079328 0.016161 -0.20353 -0.023894 0.021012 -0.29512 -0.08162 0.091962 0.32612 -0.25983 -0.18432 0.04797 -0.19471 0.08043 0.03708 0.074615 0.26505 -0.012504 0.11261 0.26044 0.13202 -0.22617 0.28073 0.083108 -0.094213 0.00061761 -0.044716 0.038687 -0.062169 -0.091292 0.25207 -0.2707 0.15508 0.14515 0.065588 0.17037 0.018846 0.057853 0.14985 0.0098264 -0.15411 0.13832 -0.10595 0.13967 -0.19944 -0.087411 0.034791 0.17114 -0.051648 0.25632 0.28881 -0.11638 -0.18582 -0.02303 -0.074543 -0.054308 0.0924 
&amp; 0.19599 0.12682 -0.040379 -0.02472 -0.054225 -0.10807 0.081425 -0.12053 0.10935 -0.093358 0.021783 0.07264 0.0075516 0.16172 -0.09176 -0.1125 0.0073361 0.086186 0.01109 -0.11629 0.0944 0.046476 0.18482 -0.007116 -0.31487 -0.081037 0.052138 0.078857 -0.0052692 0.007142 -0.0648 0.079743 0.08026 -0.20348 0.074717 0.02004 0.20648 -0.13029 -0.025731 0.034948 0.38796 0.10551 0.0083827 -0.081538 0.02161 -0.20979 -0.027454 0.019996 -0.30306 -0.083568 0.09171 0.33845 -0.2639 -0.19042 0.049453 -0.20043 0.082236 0.037381 0.079038 0.27026 -0.015635 0.115 0.26594 0.13583 -0.23089 0.29072 0.085472 -0.097858 0.0040674 -0.047009 0.037039 -0.06709 -0.090605 0.26021 -0.28085 0.16058 0.14915 0.070868 0.17845 0.015981 0.059268 0.15942 0.0074352 -0.16178 0.13788 -0.10767 0.14136 -0.20397 -0.08594 0.034404 0.18121 -0.052124 0.2686 0.29771 -0.11998 -0.19277 -0.022934 -0.079502 -0.054059 0.094163 
les 0.16662 0.10756 -0.035305 -0.0042667 -0.062512 -0.086403 0.054361 -0.097318 0.10067 -0.090286 0.018679 0.063524 0.021 0.14075 -0.08087 -0.10122 -0.015688 0.062186 0.0097699 -0.12469 0.080289 0.051903 0.17115 0.001635 -0.27057 -0.061947 0.054767 0.064304 -0.011459 0.0087227 -0.07239 0.076731 0.0761 -0.17694 0.067293 0.013607 0.17702 -0.098689 -0.027741 0.032842 0.35028 0.099817 0.0044405 -0.064698 0.0060872 -0.1905 -0.029023 0.015653 -0.27811 -0.074579 0.058841 0.29559 -0.2519 -0.15193 0.036175 -0.17444 0.053103 0.047291 0.096833 0.24781 -0.0061561 0.086838 0.23806 0.13427 -0.18929 0.25417 0.097841 -0.091947 -1.3599e-05 -0.042438 0.017823 -0.03808 -0.074412 0.21837 -0.25988 0.14405 0.12355 0.059884 0.17111 0.001588 0.050199 0.12304 0.018833 -0.13691 0.10818 -0.085549 0.099425 -0.18854 -0.082537 0.019678 0.16702 -0.04724 0.24748 0.23947 -0.12285 -0.16992 -0.028961 -0.080884 -0.054525 0.071748 
des 0.17464 0.11571 -0.037765 -0.0018631 -0.069691 -0.084541 0.055386 -0.10081 0.1111 -0.10075 0.025952 0.066995 0.021967 0.15467 -0.082527 -0.10979 -0.022608 0.060633 0.0082296 -0.13479 0.0857 0.056468 0.18428 0.004244 -0.28906 -0.057522 0.062057 0.071375 -0.011069 0.0088503 -0.086349 0.087985 0.087493 -0.18187 0.069285 0.019832 0.18542 -0.090147 -0.03065 0.039201 0.37121 0.10415 -0.0025327 -0.063065 0.0079174 -0.21154 -0.035718 0.024403 -0.29495 -0.075546 0.045635 0.31362 -0.26831 -0.15881 0.04095 -0.18808 0.050507 0.056036 0.11371 0.26179 -0.0047363 0.084481 0.25556 0.14303 -0.19076 0.27351 0.10979 -0.09863 0.002607 -0.043685 0.01069 -0.041918 -0.075072 0.22655 -0.28002 0.14754 0.12677 0.06326 0.18349 -0.0025939 0.058051 0.1272 0.020789 -0.14615 0.11374 -0.088679 0.10149 -0.20507 -0.094328 0.019688 0.18188 -0.048894 0.26332 0.24554 -0.13494 -0.17777 -0.03103 -0.085439 -0.051486 0.075749 
pour 0.17202 0.10996 -0.03623 -0.0085573 -0.053904 -0.085501 0.06267 -0.099079 0.10142 -0.089678 0.021529 0.06392 0.019364 0.14405 -0.081294 -0.10522 -0.013653 0.061482 0.010825 -0.11863 0.08116 0.045249 0.17331 -0.00046691 -0.27943 -0.061421 0.056953 0.069546 -0.0057161 0.012374 -0.074069 0.082026 0.07776 -0.1808 0.069284 0.017161 0.17512 -0.098041 -0.026081 0.02754 0.35587 0.099437 0.00051652 -0.063026 0.010262 -0.19587 -0.027807 0.01843 -0.27944 -0.079001 0.059408 0.30252 -0.25248 -0.16183 0.040055 -0.1775 0.055295 0.046603 0.093134 0.25179 -0.0073963 0.088498 0.2416 0.13391 -0.19232 0.26123 0.09675 -0.09162 0.001276 -0.040035 0.020444 -0.046803 -0.077673 0.2202 -0.26012 0.1434 0.12666 0.055411 0.17024 0.0060936 0.055453 0.12647 0.018868 -0.14478 0.11197 -0.083935 0.10457 -0.1867 -0.085003 0.022173 0.16648 -0.0458 0.24683 0.24588 -0.12322 -0.17024 -0.022402 -0.078702 -0.046652 0.075251 
le 0.17609 0.11726 -0.037958 -0.0059513 -0.064672 -0.090446 0.058242 -0.10865 0.10323 -0.095424 0.027331 0.072787 0.01786 0.15169 -0.084178 -0.11472 -0.010866 0.070255 0.0047984 -0.1305 0.085116 0.057524 0.18305 4.4439e-05 -0.30068 -0.07029 0.059651 0.068412 -0.005906 0.015331 -0.077513 0.086214 0.085102 -0.1925 0.072112 0.013909 0.18899 -0.11086 -0.02632 0.037318 0.38595 0.10436 -0.0033228 -0.074747 0.0153 -0.20819 -0.02528 0.02075 -0.30085 -0.084898 0.064196 0.32254 -0.26855 -0.1678 0.042231 -0.1837 0.056953 0.045904 0.1049 0.2654 -0.013334 0.094933 0.2518 0.143 -0.20438 0.27223 0.10114 -0.097615 -0.0020539 -0.045648 0.020463 -0.043826 -0.084748 0.23368 -0.27699 0.15235 0.13353 0.062208 0.17701 0.0036461 0.051439 0.13274 0.020509 -0.15615 0.12071 -0.089833 0.11352 -0.20073 -0.094173 0.03273 0.18001 -0.046159 0.26851 0.26739 -0.12888 -0.18681 -0.028697 -0.090533 -0.051742 0.080113 
en 0.16239 0.10826 -0.037586 -0.0078684 -0.059005 -0.086959 0.060443 -0.10305 0.10384 -0.094028 0.026384 0.058713 0.011351 0.14964 -0.068562 -0.10297 -0.013707 0.059217 0.012712 -0.11966 0.073879 0.050983 0.17328 0.0027488 -0.28709 -0.063666 0.059234 0.068057 -0.010663 0.0045191 -0.071461 0.083371 0.075679 -0.18674 0.069409 0.020445 0.18202 -0.112 -0.021806 0.031621 0.36084 0.099968 0.0029916 -0.064221 0.0088231 -0.19512 -0.029081 0.022532 -0.28659 -0.076434 0.068432 0.31413 -0.2502 -0.15554 0.040521 -0.17733 0.053679 0.041659 0.087198 0.25712 -0.0062693 0.098128 0.23649 0.13785 -0.19571 0.2614 0.096569 -0.095744 0.0026751 -0.048698 0.026603 -0.050459 -0.080957 0.21362 -0.26423 0.1477 0.12415 0.061852 0.1688 0.0046958 0.061959 0.13453 0.021762 -0.14524 0.11685 -0.09902 0.11415 -0.19221 -0.08437 0.019708 0.16596 -0.045769 0.25027 0.25386 -0.11984 -0.17278 -0.019852 -0.081027 -0.062127 0.079885 
! 0.18468 0.11445 -0.0401 -0.019493 -0.060212 -0.10285 0.06653 -0.11086 0.10487 -0.089025 0.020095 0.061413 0.013417 0.156 -0.0827 -0.11613 -0.0073324 0.085037 0.007128 -0.12088 0.088601 0.05257 0.1771 -0.0064498 -0.29727 -0.07316 0.049966 0.081602 -0.0011262 0.010401 -0.076043 0.079766 0.078363 -0.1918 0.079768 0.024071 0.20113 -0.11795 -0.020473 0.031525 0.37372 0.10921 0.0012122 -0.073129 0.0096 -0.20677 -0.029779 0.023142 -0.29021 -0.087626 0.076356 0.32629 -0.26352 -0.18237 0.041487 -0.19107 0.065862 0.050151 0.089193 0.26985 -0.0066445 0.10981 0.26137 0.14128 -0.21449 0.28386 0.092891 -0.093817 -0.0012444 -0.04456 0.024643 -0.05533 -0.08156 0.24426 -0.277 0.15397 0.14341 0.064996 0.18047 0.0021613 0.055215 0.14112 0.017061 -0.15431 0.1302 -0.096189 0.12365 -0.19897 -0.095286 0.026782 0.17187 -0.052874 0.26367 0.26938 -0.12456 -0.17839 -0.02285 -0.083411 -0.060169 0.076266 
The 0.18342 0.12691 -0.040116 -0.026369 -0.050647 -0.10946 0.073842 -0.11781 0.10538 -0.094116 0.013508 0.073414 0.0057194 0.15675 -0.090986 -0.10976 0.0062692 0.084587 0.0086153 -0.11827 0.085775 0.040958 0.17946 -0.0028802 -0.30074 -0.078121 0.047344 0.073304 0.00080181 0.0057286 -0.057671 0.075143 0.076107 -0.19948 0.068681 0.021043 0.20076 -0.13079 -0.024083 0.031912 0.37851 0.10205 0.0082671 -0.075726 0.018538 -0.20035 -0.02461 0.012295 -0.29412 -0.085732 0.089532 0.32944 -0.25844 -0.18382 0.046142 -0.19649 0.081044 0.039029 0.076194 0.26129 -0.014597 0.10953 0.25897 0.13321 -0.22817 0.27648 0.080014 -0.090612 0.0062531 -0.042481 0.031392 -0.061605 -0.084087 0.25222 -0.2691 0.15723 0.14466 0.062146 0.17388 0.014889 0.060242 0.1578 0.011884 -0.1529 0.13599 -0.10411 0.13574 -0.19759 -0.083389 0.03976 0.17437 -0.056413 0.25443 0.28683 -0.11851 -0.18422 -0.020272 -0.067985 -0.056933 0.093498 
you 0.20804 0.13389 -0.040835 -0.032827 -0.052168 -0.11745 0.088341 -0.12682 0.10669 -0.093789 0.022375 0.078948 0.0029808 0.16733 -0.092585 -0.11772 0.015696 0.098506 0.012923 -0.11625 0.097341 0.047058 0.19292 -0.013515 -0.3278 -0.081298 0.052221 0.083565 -0.0023161 -5.9068e-05 -0.066436 0.091008 0.07702 -0.21359 0.076657 0.021713 0.21929 -0.14049 -0.028447 0.029416 0.40636 0.1139 0.0082524 -0.085251 0.019422 -0.22125 -0.031192 0.017795 -0.31574 -0.088158 0.10004 0.35268 -0.27602 -0.20092 0.048669 -0.21164 0.093555 0.037958 0.081958 0.28548 -0.012703 0.12489 0.27835 0.13827 -0.24755 0.30131 0.08694 -0.096133 0.0074157 -0.050418 0.042778 -0.075073 -0.093765 0.27059 -0.28919 0.16358 0.15922 0.076388 0.18408 0.021895 0.059448 0.16523 0.0085053 -0.16595 0.14289 -0.11502 0.15064 -0.2075 -0.086936 0.03846 0.18364 -0.055253 0.27103 0.3109 -0.12589 -0.19786 -0.0248 -0.077603 -0.050845 0.096148 
are 0.20062 0.12937 -0.03837 -0.024379 -0.052842 -0.11363 0.077901 -0.11717 0.10809 -0.093561 0.017934 0.069093 0.0091676 0.16677 -0.089894 -0.11515 0.0070119 0.085375 0.012353 -0.12212 0.089036 0.050429 0.18572 -0.0084859 -0.32108 -0.07654 0.054074 0.079947 -0.0032265 0.0044363 -0.066376 0.083203 0.082669 -0.20497 0.075186 0.02404 0.20956 -0.13396 -0.02694 0.032021 0.39819 0.11057 0.006363 -0.079055 0.019427 -0.21391 -0.029613 0.023215 -0.31136 -0.088537 0.092249 0.34317 -0.26974 -0.19439 0.04849 -0.20445 0.082215 0.04558 0.084512 0.27865 -0.017241 0.11244 0.27164 0.1402 -0.23828 0.29392 0.091873 -0.099672 0.0014868 -0.049023 0.030948 -0.065694 -0.090721 0.26455 -0.28485 0.16039 0.1517 0.068984 0.1825 0.011629 0.057087 0.16144 0.0088315 -0.16973 0.14047 -0.10984 0.14345 -0.20369 -0.08576 0.035778 0.18093 -0.052318 0.27205 0.30204 -0.12657 -0.19433 -0.025537 -0.082501 -0.050234 0.093598 
an 0.19499 0.12825 -0.038174 -0.029254 -0.050665 -0.11676 0.089393 -0.12416 0.10749 -0.095084 0.023429 0.073174 0.0058611 0.1676 -0.08602 -0.10903 0.016194 0.092409 0.016226 -0.11882 0.098062 0.049481 0.18852 -0.007865 -0.32544 -0.077188 0.049272 0.083404 -0.0021044 0.0036072 -0.065125 0.07762 0.076734 -0.20815 0.073233 0.018855 0.21362 -0.144 -0.029444 0.032622 0.39481 0.11059 0.012789 -0.079424 0.015862 -0.21251 -0.023915 0.020578 -0.31028 -0.079823 0.10162 0.3493 -0.27297 -0.19035 0.055089 -0.20238 0.085363 0.03633 0.075301 0.27802 -0.011429 0.12454 0.274 0.13793 -0.23032 0.2955 0.082522 -0.099995 0.0030401 -0.051064 0.03402 -0.073634 -0.092862 0.26247 -0.28515 0.15968 0.14734 0.07466 0.18713 0.016284 0.066116 0.15897 0.0038973 -0.16157 0.1441 -0.11597 0.15523 -0.20723 -0.092685 0.034854 0.17505 -0.049076 0.26837 0.30517 -0.11792 -0.19864 -0.021541 -0.08093 -0.06161 0.0943 
our 0.20301 0.12758 -0.036847 -0.022959 -0.056653 -0.10395 0.073894 -0.11455 0.11241 -0.093764 0.025255 0.070697 0.013873 0.16941 -0.088188 -0.11603 -0.0018659 0.076782 0.0096251 -0.12184 0.092325 0.048422 0.19252 -0.005743 -0.32056 -0.076274 0.057964 0.07815 -0.0065662 0.0073556 -0.072418 0.08288 0.085366 -0.20161 0.074631 0.019661 0.20829 -0.12324 -0.028463 0.035319 0.40511 0.1171 -6.0908e-05 -0.079954 0.019215 -0.21825 -0.031815 0.018105 -0.3152 -0.085318 0.082316 0.3507 -0.27513 -0.19533 0.044213 -0.20775 0.079409 0.04476 0.090933 0.28284 -0.012791 0.10793 0.27597 0.14476 -0.23168 0.29431 0.09742 -0.098475 0.006505 -0.04882 0.033429 -0.063174 -0.087133 0.25999 -0.29191 0.16237 0.14954 0.070836 0.18474 0.012949 0.058719 0.15466 0.011183 -0.16321 0.13502 -0.10293 0.13684 -0.2123 -0.095681 0.032967 0.1883 -0.05378 0.27972 0.29629 -0.13332 -0.19664 -0.024827 -0.082377 -0.055385 0.091379 
#VDtech 0.18467 0.12078 -0.038395 -0.022574 -0.047947 -0.1013 0.074149 -0.1089 0.10028 -0.089742 0.018318 0.069513 0.0097025 0.15241 -0.085726 -0.10668 0.0041912 0.08062 0.012405 -0.11353 0.085295 0.0458 0.17647 -0.0073112 -0.29816 -0.075193 0.049631 0.074583 -0.0064866 0.0066227 -0.064575 0.07585 0.074561 -0.19178 0.072333 0.0183 0.19478 -0.12378 -0.025575 0.032873 0.3711 0.10046 0.0094635 -0.0737 0.015206 -0.19989 -0.026811 0.017114 -0.29499 -0.078738 0.086019 0.31925 -0.25396 -0.1766 0.044383 -0.18793 0.076782 0.03883 0.077826 0.25935 -0.010895 0.10784 0.25445 0.13276 -0.21497 0.27147 0.085011 -0.089588 0.0025254 -0.045449 0.033122 -0.060286 -0.08212 0.24434 -0.2684 0.15343 0.13966 0.066002 0.17009 0.012686 0.054018 0.14802 0.012369 -0.15315 0.12962 -0.10437 0.13191 -0.19354 -0.083718 0.031338 0.17139 -0.049733 0.25694 0.28035 -0.11704 -0.18219 -0.020492 -0.07532 -0.053091 0.085595 
that 0.20237 0.12682 -0.032705 -0.033648 -0.049271 -0.1069 0.079688 -0.11795 0.099719 -0.090759 0.014842 0.070285 0.0049385 0.15794 -0.096649 -0.1091 0.01729 0.092207 0.01096 -0.11149 0.090761 0.03992 0.18059 -0.0094366 -0.31006 -0.075489 0.048085 0.085726 -0.0025641 7.6771e-05 -0.057258 0.077448 0.076344 -0.20017 0.072804 0.018673 0.2119 -0.13503 -0.026802 0.028782 0.38531 0.10885 0.0067385 -0.078874 0.021279 -0.2086 -0.030441 0.01997 -0.29823 -0.082348 0.098412 0.33304 -0.26321 -0.19304 0.049739 -0.19633 0.093837 0.037069 0.073578 0.26777 -0.013917 0.12215 0.26733 0.1311 -0.23928 0.28169 0.079091 -0.08863 -0.00059722 -0.047478 0.039013 -0.069817 -0.092106 0.26039 -0.27609 0.1554 0.15487 0.073128 0.17691 0.017294 0.061737 0.15606 0.004189 -0.15515 0.14171 -0.11284 0.14881 -0.19968 -0.082462 0.040714 0.1777 -0.053321 0.26111 0.30375 -0.11549 -0.19206 -0.017764 -0.074352 -0.045327 0.095735 
du 0.16756 0.11367 -0.036866 -0.018389 -0.055272 -0.085296 0.05829 -0.10111 0.10261 -0.092118 0.021737 0.063887 0.016939 0.15128 -0.076031 -0.10153 -0.0074979 0.063561 0.0044549 -0.11998 0.088038 0.041731 0.16787 -0.002496 -0.27975 -0.065992 0.058382 0.069636 -0.0092427 0.0080595 -0.070242 0.080066 0.076953 -0.18191 0.063059 0.017669 0.18251 -0.10712 -0.02892 0.029369 0.35615 0.094125 0.0057137 -0.065936 0.0087988 -0.19822 -0.025828 0.02029 -0.27637 -0.070013 0.062309 0.30329 -0.24847 -0.15892 0.042267 -0.17977 0.058212 0.048451 0.08776 0.24665 -0.0062613 0.093518 0.24117 0.13247 -0.1922 0.25936 0.095518 -0.093604 0.00077424 -0.039323 0.028789 -0.046705 -0.079853 0.22962 -0.25824 0.14406 0.13064 0.057099 0.16844 0.0039455 0.058492 0.12879 0.021273 -0.15137 0.11507 -0.084262 0.10763 -0.18988 -0.085721 0.027709 0.16956 -0.043113 0.24881 0.25089 -0.12168 -0.17765 -0.026311 -0.077282 -0.047581 0.07187 
sur 0.17105 0.11337 -0.035878 -0.0081387 -0.054489 -0.085049 0.057155 -0.10274 0.10297 -0.092409 0.023032 0.070151 0.014043 0.14955 -0.081495 -0.10772 -0.012794 0.069432 0.011426 -0.12329 0.080497 0.049926 0.17804 -0.0021471 -0.28369 -0.064004 0.056577 0.06539 -0.0065869 0.010791 -0.072037 0.077895 0.075129 -0.18328 0.069841 0.019501 0.17733 -0.10224 -0.025656 0.030311 0.3579 0.10039 -0.0019772 -0.069312 0.014214 -0.19584 -0.031293 0.019555 -0.28804 -0.078929 0.062482 0.31289 -0.25221 -0.16481 0.039164 -0.183 0.06318 0.044996 0.092046 0.25196 -0.0082605 0.095958 0.24576 0.13667 -0.19589 0.25985 0.096046 -0.089897 0.0028793 -0.041937 0.023105 -0.05185 -0.077072 0.22688 -0.26314 0.14694 0.12585 0.058361 0.17124 0.01152 0.053877 0.13038 0.01702 -0.14803 0.11746 -0.089695 0.11323 -0.19019 -0.08917 0.026325 0.16647 -0.043518 0.25112 0.25507 -0.12698 -0.17815 -0.025541 -0.08049 -0.052117 0.077873 
be 0.20137 0.1281 -0.041924 -0.030923 -0.045038 -0.10618 0.075492 -0.11387 0.11033 -0.089847 0.021232 0.073969 0.0032763 0.1614 -0.09594 -0.11083 0.0095402 0.090924 0.016556 -0.11046 0.086171 0.048934 0.18269 -0.0094703 -0.3125 -0.076095 0.04475 0.076795 -0.0029473 0.00089711 -0.067217 0.082044 0.07779 -0.19954 0.0675 0.017854 0.20914 -0.14144 -0.033889 0.031827 0.39246 0.11001 0.0066836 -0.082998 0.019756 -0.20932 -0.03444 0.019438 -0.30535 -0.080234 0.097352 0.34113 -0.26035 -0.19491 0.04821 -0.20744 0.08316 0.040975 0.073975 0.27639 -0.014243 0.11682 0.27182 0.1367 -0.23262 0.28797 0.084854 -0.092559 0.00096736 -0.048411 0.035461 -0.06254 -0.090097 0.26583 -0.27912 0.15432 0.15651 0.070335 0.18053 0.014991 0.054282 0.15609 0.009405 -0.15711 0.14128 -0.10726 0.1479 -0.20513 -0.092086 0.036966 0.17808 -0.057421 0.26332 0.2934 -0.12265 -0.19418 -0.021826 -0.072128 -0.051409 0.099496 
EPFL 0.18487 0.11959 -0.03828 -0.016458 -0.051482 -0.1008 0.078318 -0.11366 0.10008 -0.090587 0.016767 0.066359 0.011636 0.15634 -0.087458 -0.10575 -0.00071385 0.079036 0.017051 -0.11521 0.089663 0.038964 0.18638 -0.0013522 -0.29929 -0.071203 0.053031 0.082825 -0.0025281 0.0032048 -0.06348 0.081753 0.077746 -0.19573 0.073214 0.022925 0.19612 -0.12181 -0.02706 0.035211 0.37615 0.10388 0.0058402 -0.070806 0.015241 -0.2048 -0.028453 0.011343 -0.29614 -0.082899 0.081088 0.32388 -0.26035 -0.17985 0.049048 -0.19416 0.077219 0.046481 0.086096 0.26445 -0.014676 0.10741 0.25692 0.13457 -0.21337 0.27944 0.088235 -0.094674 0.0026401 -0.043864 0.0326 -0.05942 -0.087699 0.24656 -0.27371 0.1526 0.14502 0.06446 0.17064 0.017382 0.059555 0.14847 0.011283 -0.15702 0.12999 -0.098978 0.13179 -0.19752 -0.086599 0.031635 0.1729 -0.053209 0.26258 0.2817 -0.12713 -0.18519 -0.027287 -0.080119 -0.052554 0.087065 
@epfl 0.20068 0.13042 -0.040477 -0.02542 -0.0583 -0.1084 0.079339 -0.12475 0.11357 -0.10032 0.019794 0.074449 0.01086 0.16483 -0.096188 -0.11729 0.0037891 0.084294 0.0093278 -0.12652 0.092231 0.048104 0.19329 -0.0079159 -0.31896 -0.076151 0.062085 0.086908 -0.0067276 0.0049905 -0.067108 0.082254 0.083648 -0.21429 0.076028 0.019919 0.2153 -0.13002 -0.030026 0.032445 0.40483 0.10954 0.0045941 -0.078613 0.016393 -0.21866 -0.026759 0.020033 -0.31587 -0.085971 0.087778 0.34459 -0.27961 -0.19327 0.04834 -0.21014 0.08017 0.047998 0.084118 0.28149 -0.011401 0.11564 0.27829 0.14432 -0.2393 0.29555 0.092326 -0.097818 0.00095767 -0.045938 0.03415 -0.067303 -0.089674 0.26508 -0.28962 0.165 0.15299 0.069065 0.18728 0.015301 0.058018 0.16045 0.012306 -0.16742 0.14262 -0.10715 0.13891 -0.21042 -0.09477 0.037297 0.18568 -0.053885 0.2755 0.29956 -0.12755 -0.20097 -0.020833 -0.082161 -0.055243 0.096 
about 0.20364 0.1346 -0.040653 -0.030679 -0.054812 -0.10772 0.085163 -0.12111 0.11161 -0.097757 0.0218 0.074262 0.0065297 0.1668 -0.091206 -0.11903 0.010821 0.091767 0.012089 -0.12454 0.092566 0.045217 0.19285 -0.0055132 -0.32562 -0.083022 0.05351 0.082816 -0.002559 0.0029647 -0.071407 0.080693 0.080978 -0.20828 0.074464 0.018768 0.21909 -0.14051 -0.027417 0.033102 0.40896 0.11125 0.0062649 -0.081906 0.015794 -0.21829 -0.029727 0.023315 -0.31657 -0.087346 0.096229 0.34977 -0.27827 -0.19237 0.050093 -0.21449 0.086729 0.044898 0.082615 0.28165 -0.016338 0.12325 0.27865 0.14403 -0.24238 0.2989 0.089292 -0.095753 0.0029951 -0.04934 0.036175 -0.071214 -0.097899 0.26967 -0.28981 0.16789 0.1605 0.073261 0.18123 0.016924 0.059867 0.16285 0.01082 -0.16947 0.1444 -0.11447 0.14576 -0.21011 -0.093644 0.037624 0.18597 -0.050751 0.27791 0.30863 -0.12564 -0.19915 -0.022413 -0.077412 -0.055608 0.095781 
new 0.19323 0.13108 -0.04226 -0.025261 -0.051793 -0.10986 0.077769 -0.12 0.10904 -0.08807 0.022975 0.071558 0.011867 0.16328 -0.093306 -0.11621 0.0058894 0.088744 0.010361 -0.11926 0.088709 0.042787 0.1898 -0.0057582 -0.31719 -0.077045 0.053152 0.077641 -0.0040778 0.00096452 -0.063529 0.078435 0.078053 -0.20309 0.078703 0.01768 0.21206 -0.1338 -0.027077 0.031803 0.39659 0.11044 0.0016917 -0.082319 0.01649 -0.21215 -0.031757 0.023485 -0.30867 -0.079978 0.091051 0.34142 -0.26932 -0.18751 0.045912 -0.202 0.081009 0.038798 0.083401 0.27394 -0.010961 0.11824 0.2695 0.14273 -0.23605 0.28828 0.089265 -0.094892 -0.00051208 -0.049476 0.035747 -0.061422 -0.094028 0.26332 -0.28112 0.16141 0.15709 0.072171 0.17871 0.015289 0.06065 0.16237 0.0074159 -0.16011 0.14035 -0.11057 0.14508 -0.20574 -0.088856 0.037587 0.18055 -0.047293 0.26849 0.30348 -0.1217 -0.19259 -0.020011 -0.078791 -0.051149 0.090331 
A 0.18112 0.11689 -0.040554 -0.020359 -0.051505 -0.10217 0.077781 -0.10511 0.10878 -0.088011 0.019706 0.063659 0.0036144 0.15489 -0.081294 -0.11125 0.007203 0.082575 0.0089886 -0.12292 0.08627 0.047492 0.17475 -0.0069786 -0.29454 -0.075327 0.044257 0.070186 -0.010883 0.0045613 -0.054836 0.080602 0.071742 -0.1948 0.065662 0.022557 0.18877 -0.13239 -0.027468 0.028194 0.36746 0.097851 0.0022782 -0.077375 0.024346 -0.19798 -0.027 0.014141 -0.29026 -0.087459 0.074953 0.32318 -0.25721 -0.18186 0.046788 -0.19863 0.069207 0.036728 0.076985 0.25963 -0.007898 0.11042 0.25467 0.13342 -0.21752 0.27146 0.087981 -0.09415 -0.0029681 -0.045199 0.02661 -0.051364 -0.088327 0.24037 -0.27323 0.15639 0.14167 0.069321 0.16905 0.013449 0.05306 0.14576 0.017717 -0.14563 0.13034 -0.10832 0.13044 -0.19592 -0.087446 0.032624 0.16456 -0.043324 0.251 0.27913 -0.11173 -0.18157 -0.026055 -0.075323 -0.055356 0.083758 
can 0.19955 0.12823 -0.037036 -0.028958 -0.053389 -0.11487 0.077809 -0.12205 0.1102 -0.093215 0.018417 0.070099 0.004052 0.16549 -0.092554 -0.11263 0.0099763 0.08719 0.016926 -0.11678 0.091442 0.048035 0.19134 -0.0056447 -0.32202 -0.078226 0.053923 0.081797 -0.0045995 0.0043398 -0.068177 0.080207 0.07652 -0.20733 0.074244 0.020064 0.21303 -0.13663 -0.031143 0.029061 0.39433 0.10822 0.0062926 -0.083688 0.018008 -0.21546 -0.027148 0.022163 -0.3113 -0.083629 0.092109 0.34752 -0.27099 -0.19282 0.053998 -0.20642 0.087757 0.035723 0.080893 0.2766 -0.010846 0.11923 0.26901 0.13706 -0.23378 0.29483 0.089515 -0.10004 -9.3555e-05 -0.047414 0.036357 -0.067433 -0.096927 0.25887 -0.28224 0.16452 0.15204 0.071615 0.18447 0.014657 0.061546 0.16317 0.0087447 -0.16396 0.1408 -0.11655 0.14731 -0.20868 -0.094037 0.03538 0.18264 -0.044792 0.26591 0.30567 -0.12367 -0.19297 -0.019309 -0.082182 -0.051778 0.09623 
Swiss 0.1978 0.12986 -0.03822 -0.029482 -0.053825 -0.11014 0.079405 -0.11947 0.1064 -0.09148 0.023053 0.071146 0.0093119 0.16711 -0.09124 -0.11622 0.0057609 0.086641 0.013744 -0.12303 0.089234 0.042429 0.18928 -0.0066986 -0.31514 -0.075766 0.055104 0.080482 -0.0053521 0.0034567 -0.065468 0.080507 0.077844 -0.20612 0.075967 0.02116 0.21202 -0.13576 -0.027591 0.036051 0.39451 0.10787 0.0079489 -0.082505 0.017655 -0.20982 -0.026414 0.020647 -0.30894 -0.086675 0.088898 0.34268 -0.26925 -0.18913 0.046799 -0.20495 0.082792 0.040979 0.083283 0.27453 -0.015096 0.11762 0.26892 0.13689 -0.23108 0.28958 0.091189 -0.096937 0.0012968 -0.050419 0.034986 -0.064373 -0.09059 0.25996 -0.28243 0.16582 0.1532 0.067392 0.17808 0.015763 0.05787 0.16034 0.012312 -0.16468 0.14116 -0.11098 0.14071 -0.20814 -0.08812 0.038827 0.18382 -0.051866 0.27417 0.297 -0.12129 -0.19307 -0.024653 -0.078705 -0.054494 0.0949 
have 0.20758 0.13469 -0.037842 -0.029464 -0.051558 -0.11291 0.085061 -0.12317 0.11588 -0.099334 0.0173 0.074899 0.011108 0.16949 -0.09246 -0.11815 0.012479 0.093675 0.010712 -0.12527 0.096416 0.047883 0.19485 -0.0079521 -0.33145 -0.082434 0.053112 0.082935 -0.010357 0.0054367 -0.071342 0.082214 0.081262 -0.21496 0.078037 0.02408 0.22335 -0.14077 -0.029236 0.033871 0.40743 0.11485 0.0057408 -0.086326 0.016538 -0.21972 -0.027327 0.020374 -0.32011 -0.0867 0.097451 0.35905 -0.28357 -0.19872 0.050177 -0.21292 0.0875 0.03945 0.086793 0.2837 -0.015863 0.12569 0.2819 0.14062 -0.24865 0.3055 0.091576 -0.10123 0.0026682 -0.051375 0.039683 -0.07071 -0.095448 0.27202 -0.2964 0.17318 0.15712 0.075458 0.19289 0.020599 0.062666 0.16687 0.0094104 -0.16671 0.14886 -0.11643 0.15335 -0.21409 -0.092184 0.038079 0.18973 -0.052339 0.2836 0.31316 -0.12449 -0.2045 -0.022629 -0.08268 -0.05711 0.095919 
I 0.19618 0.11886 -0.038875 -0.023721 -0.052233 -0.10866 0.073926 -0.11081 0.10533 -0.091591 0.017062 0.076678 -0.0011557 0.16074 -0.09781 -0.11444 0.015407 0.092666 0.0063601 -0.12073 0.084868 0.034732 0.1808 -0.00018647 -0.30944 -0.080567 0.049838 0.090041 0.0028333 -0.0042961 -0.06288 0.07536 0.078753 -0.19911 0.074798 0.022776 0.21412 -0.13951 -0.023195 0.029415 0.39249 0.10949 0.0088971 -0.08833 0.01886 -0.20389 -0.026507 0.020285 -0.29003 -0.0894 0.088553 0.33108 -0.26257 -0.19291 0.049055 -0.19771 0.091693 0.034628 0.081329 0.26314 -0.015673 0.12137 0.26277 0.14336 -0.23569 0.29015 0.082127 -0.097228 -2.7651e-05 -0.041112 0.038951 -0.066874 -0.094843 0.25486 -0.2795 0.15814 0.14287 0.063019 0.16426 0.011992 0.067658 0.16138 0.016802 -0.15235 0.13112 -0.1097 0.14076 -0.20416 -0.075511 0.047683 0.17037 -0.050396 0.26837 0.30327 -0.10629 -0.19641 -0.022464 -0.076463 -0.048447 0.097077 
au 0.17181 0.11021 -0.032162 -0.0061095 -0.055066 -0.083062 0.054383 -0.10617 0.1029 -0.086287 0.02717 0.065089 0.021949 0.14531 -0.081899 -0.10667 -0.0054455 0.067232 0.0052213 -0.12035 0.080578 0.048937 0.17158 -0.0030466 -0.27983 -0.061752 0.053493 0.066981 -0.0056875 0.011609 -0.06755 0.077124 0.080744 -0.17834 0.063159 0.01914 0.17534 -0.1039 -0.018506 0.029902 0.35277 0.095602 0.00096121 -0.06455 0.013033 -0.19471 -0.035294 0.016428 -0.28196 -0.076813 0.064786 0.29914 -0.24921 -0.15856 0.036626 -0.17655 0.054693 0.044298 0.091168 0.24844 -0.0063244 0.087135 0.23262 0.13599 -0.18718 0.25928 0.094778 -0.087657 -0.0012839 -0.040305 0.019212 -0.043749 -0.074814 0.22405 -0.25593 0.14948 0.12878 0.055034 0.16764 -0.00037245 0.056322 0.12798 0.016395 -0.15049 0.11077 -0.084794 0.10017 -0.18836 -0.084376 0.029615 0.16462 -0.048668 0.24752 0.23928 -0.1207 -0.17266 -0.023791 -0.079118 -0.048212 0.073012 
: 0.17969 0.1241 -0.035956 -0.020051 -0.05583 -0.096679 0.068855 -0.10229 0.10457 -0.095268 0.026474 0.069371 0.0083289 0.15063 -0.081211 -0.1094 -0.0093575 0.069153 0.0052284 -0.12256 0.083353 0.037972 0.18517 -1.7773e-05 -0.29596 -0.074172 0.057506 0.082392 -0.0048965 0.010996 -0.076498 0.081097 0.077188 -0.18552 0.0667 0.017955 0.19494 -0.11158 -0.0263 0.031447 0.38042 0.11429 0.0020062 -0.071499 0.019614 -0.21029 -0.031474 0.022493 -0.28883 -0.076997 0.076993 0.32682 -0.2649 -0.17799 0.046551 -0.19032 0.058414 0.043671 0.088146 0.25843 -0.010722 0.096644 0.25919 0.13008 -0.21034 0.27799 0.087874 -0.089609 -0.00019994 -0.053747 0.026145 -0.055745 -0.080174 0.24566 -0.28193 0.16395 0.14452 0.059962 0.17929 0.010763 0.053957 0.13735 0.019623 -0.14829 0.12911 -0.098544 0.1255 -0.20024 -0.085717 0.032207 0.17081 -0.052101 0.26548 0.2794 -0.12393 -0.18021 -0.024335 -0.069962 -0.061562 0.087004 
un 0.19009 0.11741 -0.038502 -0.014299 -0.055426 -0.093302 0.068876 -0.10717 0.10823 -0.096955 0.026605 0.064037 0.022525 0.15685 -0.088383 -0.10946 -0.0061237 0.073076 0.011943 -0.12986 0.088231 0.054163 0.18705 -0.0040407 -0.29895 -0.069209 0.059138 0.08357 -0.010014 0.011073 -0.073933 0.082041 0.083079 -0.1917 0.071277 0.017889 0.19528 -0.10564 -0.031851 0.03917 0.38162 0.10113 -0.00254 -0.068801 0.021719 -0.20722 -0.034344 0.018824 -0.30499 -0.081268 0.073379 0.32435 -0.26629 -0.17231 0.048489 -0.19584 0.063603 0.047734 0.088156 0.26986 -0.0075215 0.10179 0.25997 0.13988 -0.20799 0.28609 0.10062 -0.097999 0.0023467 -0.047998 0.028449 -0.0539 -0.081229 0.23812 -0.2764 0.15399 0.13657 0.062611 0.18377 0.0048396 0.055 0.13777 0.017738 -0.15814 0.12122 -0.096166 0.1199 -0.20523 -0.097438 0.029984 0.17605 -0.053612 0.27102 0.26924 -0.13006 -0.1877 -0.028445 -0.082706 -0.054764 0.082076 
New 0.17731 0.11662 -0.035333 -0.027079 -0.052624 -0.10149 0.072809 -0.10661 0.099057 -0.084023 0.02182 0.068933 0.0085137 0.149 -0.083808 -0.10014 0.0089133 0.077967 0.0058432 -0.11003 0.082471 0.040352 0.16583 -0.0083747 -0.28781 -0.073126 0.048565 0.066847 -0.004398 0.0079014 -0.059435 0.073342 0.066577 -0.18834 0.067217 0.015551 0.19255 -0.12545 -0.019935 0.031103 0.35756 0.098389 0.0050124 -0.076124 0.016706 -0.19041 -0.024335 0.021163 -0.27916 -0.077893 0.081325 0.31332 -0.24248 -0.17663 0.043958 -0.18525 0.072458 0.035622 0.075458 0.24814 -0.0071685 0.10381 0.24526 0.12336 -0.20926 0.26215 0.075843 -0.084282 -0.0008301 -0.042577 0.029495 -0.056649 -0.082582 0.23213 -0.25664 0.14907 0.1413 0.066358 0.16002 0.011169 0.054869 0.14176 0.0090559 -0.14882 0.12372 -0.098691 0.12878 -0.18562 -0.078787 0.032952 0.16533 -0.046835 0.24143 0.27029 -0.11324 -0.17506 -0.025386 -0.07577 -0.04923 0.08048 
| 0.17427 0.11741 -0.038639 -0.018304 -0.052803 -0.095932 0.06252 -0.11271 0.10265 -0.083173 0.025779 0.07279 0.016721 0.14616 -0.085993 -0.11124 0.0086611 0.076956 0.010797 -0.11538 0.082942 0.03614 0.16961 -0.0082935 -0.28106 -0.075587 0.05791 0.076936 0.00078121 0.0070811 -0.062444 0.08226 0.074236 -0.18713 0.072241 0.01947 0.19557 -0.11774 -0.017242 0.031182 0.35482 0.10004 0.0096291 -0.073802 0.016488 -0.19018 -0.030039 0.020319 -0.27716 -0.071677 0.080636 0.31095 -0.24088 -0.17167 0.049165 -0.17813 0.072285 0.035784 0.083607 0.25451 -0.015095 0.10122 0.24468 0.1252 -0.20298 0.25819 0.087629 -0.08979 0.0032655 -0.044798 0.03735 -0.064781 -0.09153 0.23672 -0.26461 0.14578 0.13595 0.0549 0.15964 0.018753 0.053973 0.14151 0.012043 -0.14558 0.12009 -0.098184 0.12767 -0.18123 -0.089363 0.031593 0.16644 -0.052926 0.24519 0.26732 -0.11288 -0.17551 -0.025922 -0.076353 -0.042648 0.084455 
more 0.20425 0.13337 -0.040014 -0.025683 -0.051754 -0.11227 0.079519 -0.12414 0.11031 -0.098057 0.017377 0.076999 0.0063575 0.16798 -0.095408 -0.11749 0.0065128 0.093007 0.012217 -0.12274 0.091068 0.048554 0.1921 -0.00711 -0.3281 -0.079124 0.052508 0.083199 -0.0047582 0.0065866 -0.067328 0.081667 0.083004 -0.21014 0.078935 0.023702 0.21809 -0.13804 -0.028531 0.036299 0.4063 0.11417 0.0053729 -0.084248 0.018798 -0.21854 -0.027655 0.022544 -0.31956 -0.084032 0.094562 0.35128 -0.2787 -0.19862 0.051202 -0.20972 0.08765 0.044585 0.087417 0.28463 -0.016337 0.1172 0.27945 0.14394 -0.24131 0.3012 0.09324 -0.10097 -0.00016208 -0.050897 0.034756 -0.063728 -0.095516 0.27241 -0.29159 0.16969 0.15683 0.071749 0.18822 0.013698 0.060746 0.16332 0.015154 -0.1672 0.14183 -0.10933 0.14617 -0.20988 -0.092977 0.032331 0.19167 -0.054477 0.28173 0.3101 -0.12669 -0.19881 -0.023204 -0.083279 -0.056078 0.095404 
it 0.21001 0.1333 -0.038296 -0.033072 -0.058679 -0.11668 0.07996 -0.12873 0.10979 -0.099425 0.024173 0.080232 0.006152 0.17595 -0.096081 -0.12462 0.0070223 0.091285 0.01368 -0.1236 0.091448 0.037364 0.19704 -0.0028942 -0.33426 -0.085779 0.058495 0.084962 -0.00069371 0.0082187 -0.067786 0.085891 0.08155 -0.2145 0.080701 0.02105 0.22416 -0.14448 -0.031998 0.036711 0.41506 0.11678 0.0065041 -0.085687 0.015385 -0.21819 -0.03311 0.021502 -0.3203 -0.089591 0.096153 0.35479 -0.27733 -0.20198 0.050826 -0.21144 0.096969 0.044254 0.086547 0.29074 -0.016507 0.12848 0.2807 0.14193 -0.24604 0.30088 0.088901 -0.10029 -0.003622 -0.047616 0.041278 -0.069875 -0.09832 0.27571 -0.30255 0.17481 0.16302 0.069742 0.18221 0.015655 0.063103 0.16448 0.011113 -0.1721 0.14684 -0.11467 0.14799 -0.21654 -0.087172 0.044124 0.18718 -0.050101 0.28952 0.3142 -0.12327 -0.20436 -0.024926 -0.077338 -0.053566 0.098957 
will 0.19753 0.13057 -0.036808 -0.026693 -0.051652 -0.11177 0.077874 -0.1194 0.10588 -0.085533 0.017311 0.072474 0.0076804 0.16288 -0.089577 -0.11079 0.0072519 0.08757 0.013621 -0.1163 0.091199 0.041833 0.1894 -0.0067651 -0.31351 -0.080773 0.054371 0.081186 -0.0012993 0.00031148 -0.063199 0.081398 0.077132 -0.19984 0.073461 0.020313 0.20567 -0.13116 -0.030846 0.035699 0.39099 0.1077 0.010229 -0.082017 0.022758 -0.21265 -0.026891 0.02375 -0.30435 -0.083349 0.09148 0.34142 -0.26219 -0.18988 0.048086 -0.2029 0.086293 0.038527 0.080781 0.2687 -0.014993 0.11996 0.26864 0.13918 -0.23285 0.28781 0.087291 -0.093254 -0.00055207 -0.048634 0.038633 -0.064971 -0.091014 0.25963 -0.27938 0.16178 0.15514 0.06748 0.17465 0.020116 0.05641 0.16081 0.011414 -0.1623 0.13799 -0.11127 0.14295 -0.20568 -0.087724 0.035312 0.17757 -0.053419 0.26943 0.29918 -0.1243 -0.19494 -0.022241 -0.08315 -0.057249 0.09909 
#Switzerland 0.2176 0.14055 -0.043264 -0.023254 -0.063581 -0.12745 0.093625 -0.14022 0.12678 -0.11221 0.02679 0.077768 0.010751 0.18538 -0.092462 -0.13019 0.0052805 0.095984 0.01716 -0.139 0.10111 0.051723 0.21713 -0.0080332 -0.36345 -0.090837 0.059072 0.090583 -0.0065118 -0.00059389 -0.074123 0.092023 0.090493 -0.23578 0.084938 0.025389 0.23354 -0.15788 -0.026444 0.037139 0.44853 0.12454 0.0070612 -0.089775 0.019785 -0.23848 -0.025438 0.025219 -0.3584 -0.096196 0.10663 0.40014 -0.30597 -0.21522 0.054107 -0.23374 0.090617 0.038921 0.092995 0.31837 -0.014626 0.13009 0.29909 0.16052 -0.25574 0.33402 0.10342 -0.11089 0.001402 -0.057532 0.039243 -0.072106 -0.10937 0.2896 -0.32513 0.19292 0.16715 0.0791 0.20925 0.019054 0.075322 0.18556 0.017715 -0.1816 0.15779 -0.13088 0.16225 -0.23961 -0.10397 0.040227 0.20628 -0.05579 0.31214 0.34086 -0.14615 -0.21893 -0.025915 -0.093863 -0.071368 0.10408 
has 0.20199 0.12958 -0.037101 -0.028736 -0.054596 -0.11327 0.075356 -0.11968 0.10831 -0.094647 0.021455 0.071574 0.0089591 0.16365 -0.091619 -0.11971 0.0074389 0.092353 0.013957 -0.12649 0.088387 0.043432 0.18878 -0.0073849 -0.32377 -0.079392 0.052433 0.082304 -0.0051003 0.0068692 -0.070374 0.0798 0.080875 -0.20221 0.07896 0.022413 0.21539 -0.14009 -0.028421 0.032013 0.40004 0.11057 0.0099409 -0.08173 0.016903 -0.21253 -0.033926 0.01721 -0.30478 -0.084162 0.095805 0.34398 -0.27474 -0.19162 0.049195 -0.20799 0.08565 0.046488 0.082417 0.27428 -0.01596 0.12389 0.27029 0.13981 -0.23726 0.29262 0.090141 -0.099753 -3.3999e-05 -0.049087 0.036434 -0.067383 -0.090028 0.26278 -0.28168 0.17032 0.1538 0.069841 0.1813 0.014044 0.060127 0.16054 0.011286 -0.16889 0.14408 -0.1103 0.14191 -0.20726 -0.092754 0.041112 0.17741 -0.050097 0.2725 0.30426 -0.12376 -0.19633 -0.025087 -0.081816 -0.053437 0.091439 
une 0.16741 0.10688 -0.03287 -0.0069249 -0.055227 -0.081614 0.059923 -0.099305 0.10332 -0.092185 0.020028 0.060936 0.018661 0.1421 -0.079189 -0.10346 -0.014165 0.063611 0.0079582 -0.12552 0.077899 0.050456 0.17583 -0.00031829 -0.27801 -0.065382 0.061982 0.068753 -0.011593 0.011117 -0.068514 0.081699 0.080428 -0.17427 0.062095 0.013992 0.17483 -0.09376 -0.024953 0.031457 0.34947 0.099185 -0.00011627 -0.065319 0.01255 -0.19403 -0.030314 0.018115 -0.27583 -0.080223 0.05645 0.29992 -0.24651 -0.15668 0.045147 -0.17467 0.052027 0.045407 0.09056 0.24814 -0.0035965 0.086717 0.23673 0.13718 -0.18914 0.25879 0.097852 -0.091032 0.0015519 -0.043267 0.019387 -0.043475 -0.073392 0.21741 -0.25711 0.14252 0.12302 0.053678 0.16701 0.0068646 0.04978 0.11984 0.01899 -0.14623 0.11006 -0.081858 0.098291 -0.19209 -0.086868 0.025404 0.16314 -0.047506 0.2452 0.23732 -0.12645 -0.16969 -0.022788 -0.080582 -0.048474 0.075002 
first 0.19971 0.12778 -0.041093 -0.031841 -0.053659 -0.11071 0.078466 -0.12014 0.11267 -0.0947 0.019143 0.071049 0.010806 0.16464 -0.091645 -0.11811 0.0053878 0.090398 0.013594 -0.12035 0.08842 0.046459 0.18967 -0.0068045 -0.3168 -0.078368 0.050104 0.080303 -0.0082952 0.0036025 -0.069095 0.079099 0.081276 -0.20705 0.075723 0.022232 0.21404 -0.1403 -0.024893 0.032635 0.39914 0.11032 0.010291 -0.077273 0.014152 -0.21419 -0.029867 0.019162 -0.30893 -0.08488 0.093318 0.34599 -0.26992 -0.19279 0.049433 -0.20549 0.082582 0.042745 0.077371 0.27635 -0.017373 0.12092 0.2742 0.13987 -0.23791 0.29081 0.088251 -0.094002 3.8561e-05 -0.050819 0.037086 -0.064293 -0.09553 0.26387 -0.28268 0.16784 0.15234 0.070509 0.18336 0.018347 0.06243 0.16471 0.010092 -0.16421 0.14217 -0.11328 0.14695 -0.20477 -0.089416 0.039516 0.17889 -0.051289 0.27209 0.30131 -0.12295 -0.19777 -0.023277 -0.078394 -0.05378 0.093927 
2018 0.19809 0.13197 -0.042971 -0.023245 -0.052028 -0.10661 0.081136 -0.12552 0.10982 -0.094325 0.022412 0.07408 0.010928 0.16721 -0.091231 -0.11872 0.00020781 0.09047 0.013237 -0.12233 0.092849 0.045749 0.19253 -0.0015532 -0.3235 -0.076992 0.054878 0.082894 -0.0077203 0.0068723 -0.070883 0.086964 0.084893 -0.20738 0.077202 0.022948 0.20895 -0.13047 -0.024883 0.037036 0.39879 0.11423 0.0084881 -0.080082 0.01678 -0.21463 -0.034426 0.025614 -0.31325 -0.086497 0.090218 0.35013 -0.27201 -0.19101 0.049925 -0.20662 0.08118 0.044313 0.085348 0.28442 -0.014587 0.12131 0.27291 0.14002 -0.22839 0.29672 0.093702 -0.097935 0.0031176 -0.053081 0.033803 -0.063145 -0.09216 0.26858 -0.2881 0.16866 0.15096 0.068725 0.18246 0.016467 0.063388 0.15791 0.010207 -0.16778 0.13933 -0.10956 0.14074 -0.21358 -0.096919 0.036552 0.18146 -0.055944 0.27463 0.2998 -0.13231 -0.19377 -0.022238 -0.081939 -0.054495 0.095466 
@MartinVetterli 0.1766 0.11616 -0.036976 -0.021091 -0.050505 -0.095356 0.069243 -0.10826 0.098283 -0.085845 0.019849 0.065925 0.010321 0.14678 -0.081455 -0.10746 0.0019 0.078236 0.0086721 -0.11198 0.081944 0.043247 0.1712 -0.0053731 -0.28874 -0.070023 0.049197 0.070929 -0.0043938 0.0052515 -0.061975 0.075345 0.075711 -0.18754 0.069245 0.016067 0.18779 -0.1193 -0.024612 0.029765 0.35953 0.098471 0.005328 -0.072644 0.015661 -0.19286 -0.02727 0.02081 -0.28288 -0.079098 0.07723 0.31188 -0.24754 -0.16904 0.043986 -0.18538 0.06869 0.038332 0.077571 0.25217 -0.01119 0.10314 0.24423 0.12889 -0.20688 0.26533 0.083562 -0.088942 0.00088516 -0.041777 0.028862 -0.054611 -0.080887 0.23365 -0.25788 0.14777 0.13774 0.06185 0.16749 0.010662 0.054915 0.14073 0.012383 -0.14776 0.12462 -0.096303 0.12425 -0.18813 -0.082806 0.032615 0.16442 -0.048816 0.24651 0.26525 -0.117 -0.17542 -0.021417 -0.073536 -0.050253 0.083884 
all 0.20752 0.13264 -0.040469 -0.031089 -0.05959 -0.11842 0.089845 -0.1295 0.11795 -0.098129 0.020555 0.07562 0.004709 0.17638 -0.093911 -0.12126 0.0094097 0.097403 0.013192 -0.12659 0.092407 0.04411 0.20237 -0.0053732 -0.33704 -0.087758 0.05839 0.086335 -0.0044861 0.0062367 -0.066212 0.084102 0.087837 -0.22316 0.078608 0.018864 0.22371 -0.14761 -0.030133 0.032342 0.42042 0.11454 0.011 -0.087767 0.018316 -0.22747 -0.0269 0.023852 -0.3315 -0.088318 0.099541 0.36763 -0.28838 -0.20191 0.048493 -0.22088 0.087206 0.04263 0.085257 0.29018 -0.013298 0.12855 0.28373 0.14547 -0.24841 0.30985 0.097892 -0.1022 0.0031077 -0.051789 0.043424 -0.065374 -0.09702 0.27844 -0.30124 0.1747 0.16449 0.073483 0.18859 0.021129 0.067354 0.17049 0.0092584 -0.17451 0.14726 -0.12318 0.15612 -0.2202 -0.096328 0.041623 0.18934 -0.054957 0.28451 0.32341 -0.1325 -0.207 -0.02213 -0.08363 -0.060106 0.10103 
students 0.20412 0.13234 -0.041718 -0.027913 -0.056941 -0.11323 0.084613 -0.12388 0.11385 -0.09745 0.021941 0.077059 0.00839 0.16788 -0.094263 -0.12022 0.0078864 0.091968 0.011288 -0.12433 0.093937 0.047045 0.19656 -0.0058878 -0.33039 -0.082646 0.054468 0.084771 -0.0046989 0.004977 -0.066332 0.0836 0.083796 -0.2153 0.074623 0.019583 0.21839 -0.13853 -0.028009 0.035277 0.40852 0.11328 0.0035894 -0.082584 0.020949 -0.22067 -0.028547 0.020721 -0.32167 -0.086548 0.097933 0.35465 -0.2801 -0.19961 0.050955 -0.20839 0.088095 0.041798 0.083281 0.28265 -0.015006 0.12234 0.27894 0.14457 -0.2415 0.30205 0.090475 -0.097454 0.00023364 -0.04827 0.038234 -0.068909 -0.094161 0.27185 -0.2921 0.16888 0.15862 0.072647 0.18411 0.016705 0.060267 0.16331 0.011108 -0.16954 0.14749 -0.11483 0.14905 -0.21293 -0.095552 0.039867 0.1876 -0.05253 0.28228 0.30844 -0.12522 -0.2013 -0.024253 -0.082 -0.056265 0.096897 
par 0.17196 0.11551 -0.037963 -0.013773 -0.059152 -0.092989 0.065973 -0.10807 0.1056 -0.094772 0.02279 0.067311 0.011506 0.15235 -0.079466 -0.10243 -0.012419 0.072679 0.0068665 -0.12104 0.083466 0.047275 0.1757 -0.0033485 -0.29179 -0.06713 0.056812 0.071551 -0.0069035 0.0022788 -0.068236 0.07584 0.079833 -0.18973 0.070201 0.01365 0.1799 -0.11002 -0.023785 0.033462 0.36692 0.10443 0.00010794 -0.066662 0.012626 -0.19996 -0.029111 0.023792 -0.28432 -0.078314 0.068867 0.31619 -0.26116 -0.16787 0.044541 -0.18432 0.063254 0.042522 0.090237 0.25605 -0.0090554 0.097808 0.24978 0.13239 -0.19944 0.26891 0.092822 -0.093803 -0.0002433 -0.04557 0.024051 -0.049882 -0.081681 0.22982 -0.26598 0.15559 0.13272 0.060039 0.17615 0.010703 0.059048 0.13704 0.019568 -0.15143 0.12053 -0.094557 0.11895 -0.1889 -0.090036 0.030544 0.17023 -0.047067 0.25428 0.26329 -0.12525 -0.17519 -0.024741 -0.074531 -0.048038 0.082471 
Les 0.16844 0.10938 -0.03521 -0.0076772 -0.055125 -0.083083 0.05683 -0.10205 0.10078 -0.089782 0.024739 0.061359 0.01498 0.14749 -0.077961 -0.096486 -0.0044287 0.068514 0.0032865 -0.11717 0.082301 0.045791 0.17194 -0.0067755 -0.27345 -0.067944 0.054481 0.071714 -0.0095858 0.0057774 -0.068262 0.075319 0.072166 -0.17663 0.066323 0.017516 0.17783 -0.098206 -0.024107 0.031879 0.35012 0.095617 0.001141 -0.066462 0.015897 -0.19011 -0.028558 0.019012 -0.27745 -0.079975 0.05665 0.29955 -0.24654 -0.15754 0.03912 -0.17735 0.05865 0.049652 0.085156 0.24626 -0.0078097 0.086977 0.23833 0.13248 -0.19032 0.25771 0.095642 -0.091629 0.0020286 -0.041684 0.026309 -0.044371 -0.071401 0.22109 -0.25788 0.14533 0.12893 0.062067 0.16667 0.0018197 0.053257 0.12232 0.012817 -0.13726 0.11279 -0.090155 0.10606 -0.18725 -0.083506 0.02786 0.16471 -0.044119 0.24428 0.2424 -0.12259 -0.1638 -0.023065 -0.077853 -0.053535 0.074128 
now 0.20718 0.12933 -0.036185 -0.035533 -0.051756 -0.11222 0.085179 -0.12295 0.10801 -0.099291 0.020449 0.078626 0.0079102 0.16827 -0.096921 -0.12162 0.0087164 0.094353 0.012228 -0.11859 0.088673 0.047723 0.1878 -0.010376 -0.32582 -0.084929 0.054432 0.083787 6.9882e-05 0.0012726 -0.065153 0.076693 0.081271 -0.21201 0.079266 0.023962 0.21556 -0.13859 -0.029968 0.039208 0.40726 0.11407 0.0074181 -0.084639 0.016618 -0.21908 -0.032345 0.021215 -0.31827 -0.087524 0.095506 0.35121 -0.27477 -0.19845 0.047203 -0.20853 0.089714 0.038778 0.084629 0.27905 -0.012623 0.12224 0.28034 0.1355 -0.24746 0.3014 0.086759 -0.096144 0.0052131 -0.050594 0.036724 -0.06901 -0.093172 0.26686 -0.2877 0.1666 0.16048 0.068129 0.18285 0.014121 0.057397 0.16377 0.0081083 -0.16757 0.14681 -0.11416 0.1468 -0.21316 -0.092675 0.043651 0.18859 -0.05534 0.27275 0.31191 -0.12406 -0.20265 -0.022021 -0.078303 -0.059286 0.095841 
this 0.20527 0.1293 -0.041527 -0.032571 -0.048189 -0.11224 0.081201 -0.11733 0.10965 -0.091183 0.012818 0.070864 0.0061368 0.16069 -0.092723 -0.11402 0.010696 0.091398 0.012148 -0.11843 0.088867 0.043252 0.18692 -0.0064038 -0.32048 -0.07865 0.051292 0.08614 -0.0058771 0.0026366 -0.062881 0.081031 0.080763 -0.2035 0.076846 0.019928 0.21736 -0.13781 -0.026748 0.031553 0.39883 0.1093 0.0091944 -0.086003 0.018987 -0.21081 -0.029518 0.022121 -0.31084 -0.085471 0.096269 0.34193 -0.27309 -0.196 0.051548 -0.20702 0.090414 0.038386 0.079553 0.27882 -0.016798 0.12323 0.27467 0.13632 -0.24415 0.29182 0.082839 -0.09281 -0.00099525 -0.047318 0.036481 -0.068067 -0.096672 0.26593 -0.28466 0.17031 0.15794 0.071617 0.18344 0.015888 0.058552 0.16251 0.0074128 -0.15846 0.14433 -0.11161 0.15012 -0.2075 -0.087391 0.038175 0.17834 -0.052791 0.27066 0.30794 -0.11939 -0.19545 -0.022594 -0.077079 -0.052688 0.094755 
its 0.20093 0.13134 -0.044737 -0.034006 -0.054141 -0.10992 0.081731 -0.12387 0.10897 -0.099741 0.022464 0.078668 0.0063517 0.16902 -0.096465 -0.11787 0.0067732 0.092281 0.010113 -0.11696 0.096351 0.042937 0.1878 -0.0047868 -0.32843 -0.08446 0.0526 0.082632 -0.0052257 0.0054408 -0.063102 0.081445 0.081412 -0.20506 0.075416 0.015383 0.2197 -0.13801 -0.023742 0.038037 0.40397 0.11335 0.0066898 -0.083416 0.014452 -0.21597 -0.031228 0.021768 -0.31627 -0.086782 0.099138 0.3464 -0.27215 -0.19581 0.050224 -0.20443 0.090251 0.04337 0.083077 0.28071 -0.013269 0.1268 0.27763 0.14246 -0.23965 0.29236 0.088995 -0.096424 -0.0039958 -0.045183 0.038137 -0.070542 -0.089777 0.27229 -0.28557 0.16736 0.1593 0.070942 0.18218 0.014675 0.057697 0.1612 0.0085977 -0.17044 0.14344 -0.11091 0.14618 -0.208 -0.095336 0.03314 0.18752 -0.051591 0.27653 0.30595 -0.12219 -0.20268 -0.027402 -0.078822 -0.059979 0.098064 
@ETH_en 0.19273 0.12869 -0.04016 -0.025465 -0.053913 -0.10839 0.079553 -0.11928 0.10466 -0.094888 0.022471 0.069071 0.011144 0.16509 -0.089152 -0.11291 0.003734 0.085563 0.011639 -0.11699 0.088078 0.043002 0.18736 -0.0064859 -0.31393 -0.077128 0.053515 0.08147 -0.003916 0.0062862 -0.065803 0.081284 0.077692 -0.20462 0.071462 0.020337 0.20932 -0.13608 -0.026581 0.030652 0.39418 0.11025 0.0059105 -0.079942 0.01663 -0.20744 -0.026326 0.019561 -0.31126 -0.083079 0.089289 0.3444 -0.26212 -0.18838 0.047128 -0.20111 0.082753 0.04011 0.084864 0.27183 -0.015149 0.11979 0.26577 0.13865 -0.22895 0.28537 0.086344 -0.09488 0.000928 -0.048588 0.032331 -0.064065 -0.093866 0.25655 -0.2802 0.16456 0.14973 0.067549 0.17885 0.015928 0.060263 0.15922 0.013145 -0.15989 0.13777 -0.11089 0.13958 -0.20782 -0.089158 0.036394 0.18083 -0.051026 0.27205 0.29694 -0.12159 -0.1957 -0.021366 -0.079597 -0.056757 0.094686 
how 0.19843 0.1237 -0.038461 -0.027177 -0.047132 -0.10744 0.079148 -0.1154 0.1042 -0.094793 0.016717 0.07254 0.0074344 0.15976 -0.088832 -0.11579 0.012427 0.090927 0.010387 -0.11542 0.090819 0.04161 0.18184 -0.0064706 -0.31464 -0.083744 0.051525 0.076953 -0.0042937 0.007097 -0.06604 0.071892 0.078049 -0.20544 0.074615 0.020449 0.2066 -0.13396 -0.025443 0.029867 0.39359 0.1088 0.0020282 -0.085799 0.015348 -0.21275 -0.032239 0.019997 -0.30458 -0.082973 0.087171 0.33854 -0.26436 -0.19085 0.048593 -0.2009 0.084019 0.041383 0.079825 0.27182 -0.014055 0.11899 0.27212 0.13059 -0.23544 0.28735 0.087626 -0.091217 0.00033424 -0.046136 0.04095 -0.065901 -0.094834 0.25434 -0.27748 0.16769 0.15176 0.069408 0.17485 0.019176 0.059517 0.16134 0.0045635 -0.15829 0.13779 -0.11077 0.13957 -0.20417 -0.086916 0.038574 0.18052 -0.044753 0.26992 0.29805 -0.12204 -0.19317 -0.021188 -0.077494 -0.054516 0.08844 
2017 0.18687 0.12289 -0.038923 -0.020876 -0.051964 -0.10119 0.075982 -0.11076 0.10129 -0.089764 0.022208 0.066487 0.006639 0.15477 -0.083656 -0.10676 0.0010945 0.082678 0.010256 -0.11498 0.091155 0.043307 0.17934 -0.0034475 -0.30119 -0.072227 0.04923 0.077456 -0.0071297 0.0033536 -0.066493 0.074893 0.076221 -0.19256 0.074024 0.021717 0.19705 -0.11886 -0.027218 0.033404 0.37328 0.10009 0.0083638 -0.073985 0.015695 -0.19996 -0.030763 0.023252 -0.29043 -0.078328 0.085533 0.32177 -0.25536 -0.17888 0.049013 -0.18989 0.075837 0.043874 0.079212 0.26055 -0.011141 0.11245 0.25594 0.13217 -0.21359 0.27768 0.086253 -0.089732 0.00077993 -0.047099 0.033518 -0.059346 -0.086547 0.24363 -0.26729 0.15659 0.14199 0.065395 0.1691 0.016595 0.056416 0.14683 0.0092011 -0.15535 0.1302 -0.10017 0.13239 -0.19693 -0.087673 0.038415 0.17011 -0.05387 0.2585 0.27709 -0.12145 -0.18483 -0.021567 -0.074007 -0.048499 0.087682 
their 0.19564 0.12504 -0.038656 -0.029253 -0.049092 -0.10614 0.080277 -0.1186 0.10263 -0.090466 0.014806 0.071728 0.0051789 0.15994 -0.08731 -0.11271 0.011417 0.08843 0.010782 -0.11541 0.086087 0.037507 0.17861 -0.0060158 -0.30723 -0.076378 0.052611 0.080166 -0.0040643 0.009016 -0.062326 0.078783 0.07683 -0.20176 0.071934 0.021597 0.20336 -0.13386 -0.024474 0.029516 0.38235 0.1042 0.005679 -0.078167 0.019632 -0.20499 -0.029137 0.019341 -0.29988 -0.082481 0.09223 0.32966 -0.25984 -0.18419 0.047683 -0.19791 0.086771 0.034453 0.072852 0.26526 -0.015418 0.11581 0.26416 0.13417 -0.23246 0.27779 0.078465 -0.088713 0.00097766 -0.046727 0.032987 -0.067822 -0.087471 0.25309 -0.27058 0.15581 0.14695 0.070682 0.16948 0.014656 0.060177 0.15387 0.0079169 -0.15729 0.1373 -0.10733 0.14088 -0.19917 -0.08742 0.037265 0.17642 -0.053158 0.26057 0.29519 -0.11304 -0.18722 -0.021722 -0.072331 -0.048485 0.09294 
@epfl_en 0.18966 0.12516 -0.03878 -0.023944 -0.054197 -0.10705 0.077347 -0.11918 0.10611 -0.09461 0.018309 0.070147 0.0085662 0.1589 -0.087107 -0.11175 0.0059118 0.083236 0.011955 -0.11685 0.088195 0.045116 0.18614 -0.0062213 -0.30766 -0.075604 0.056249 0.081011 -0.0064637 0.0022917 -0.064612 0.077728 0.076786 -0.20369 0.07288 0.018502 0.20382 -0.12851 -0.02752 0.030268 0.38608 0.10544 0.0056069 -0.076009 0.018441 -0.20583 -0.026558 0.018978 -0.30307 -0.081999 0.086815 0.33396 -0.26281 -0.18498 0.046159 -0.19853 0.078108 0.04066 0.078522 0.26957 -0.012665 0.11339 0.26445 0.13543 -0.22703 0.28167 0.085805 -0.093196 -9.5836e-06 -0.047906 0.032569 -0.06289 -0.08916 0.25082 -0.27617 0.15928 0.14744 0.067804 0.17715 0.015362 0.056586 0.15554 0.011977 -0.1583 0.13636 -0.1066 0.13735 -0.20086 -0.088416 0.034671 0.17797 -0.050318 0.26621 0.28911 -0.11903 -0.19126 -0.021031 -0.076417 -0.055329 0.093099 
as 0.20505 0.13124 -0.046103 -0.036882 -0.060091 -0.11818 0.070773 -0.11873 0.11297 -0.10572 0.024759 0.076301 0.0045612 0.16364 -0.096872 -0.12003 0.0059418 0.09486 0.012171 -0.12304 0.092409 0.053561 0.19102 -0.0086404 -0.32473 -0.082468 0.056578 0.086555 -0.0039598 0.0044664 -0.06774 0.075804 0.082975 -0.20972 0.080418 0.025169 0.22253 -0.14344 -0.02573 0.036084 0.41059 0.1101 0.0065583 -0.081207 0.012812 -0.21681 -0.035686 0.023126 -0.31595 -0.083859 0.088253 0.35445 -0.28436 -0.19833 0.045247 -0.20685 0.082619 0.042386 0.085771 0.28032 -0.01559 0.12532 0.28396 0.14087 -0.24227 0.3003 0.091109 -0.099807 -0.008617 -0.045832 0.03251 -0.071293 -0.093947 0.26788 -0.28764 0.17597 0.15614 0.06985 0.18579 0.017129 0.058107 0.16696 0.0099241 -0.17288 0.14891 -0.11404 0.14292 -0.20893 -0.096142 0.037786 0.18081 -0.055088 0.28239 0.30075 -0.12769 -0.19853 -0.016731 -0.084601 -0.059866 0.095664 
@unil 0.19197 0.12644 -0.044272 -0.024529 -0.052849 -0.10263 0.079757 -0.11806 0.10398 -0.093521 0.019625 0.072428 0.012409 0.16015 -0.086502 -0.11004 0.0068037 0.082756 0.0068885 -0.12339 0.087198 0.046336 0.18415 -0.0068195 -0.30973 -0.075096 0.056324 0.075609 -0.0053975 0.006923 -0.067696 0.077545 0.07938 -0.19975 0.070825 0.020642 0.20298 -0.1258 -0.025337 0.031207 0.38789 0.10608 0.0062725 -0.0752 0.018722 -0.21095 -0.026882 0.021393 -0.30567 -0.081812 0.083963 0.3319 -0.26541 -0.18444 0.047367 -0.20018 0.077483 0.044377 0.082108 0.27062 -0.012794 0.11401 0.26371 0.13514 -0.22745 0.28279 0.09183 -0.094507 0.00086502 -0.043895 0.029368 -0.065366 -0.087034 0.25305 -0.27697 0.15989 0.14691 0.068152 0.17514 0.012286 0.0587 0.15321 0.012099 -0.16327 0.13646 -0.10801 0.13518 -0.2006 -0.091977 0.033277 0.17829 -0.047186 0.26502 0.28804 -0.11885 -0.19127 -0.024163 -0.077067 -0.052914 0.091618 
dans 0.17233 0.11165 -0.036202 -0.014828 -0.054091 -0.092007 0.061157 -0.10365 0.096947 -0.089579 0.018502 0.063458 0.01446 0.14379 -0.075529 -0.10159 -0.0051391 0.070758 0.011579 -0.11735 0.081601 0.048156 0.17255 -0.0046988 -0.27994 -0.069548 0.050418 0.069644 -0.005846 0.0057011 -0.064545 0.071581 0.077282 -0.18256 0.063294 0.017724 0.1825 -0.11047 -0.027007 0.027402 0.35212 0.09509 0.0041395 -0.068494 0.017858 -0.19177 -0.02929 0.018038 -0.27655 -0.074254 0.071977 0.30637 -0.24971 -0.16466 0.044512 -0.17864 0.062992 0.040966 0.081964 0.24824 -0.009151 0.099551 0.24007 0.13073 -0.20107 0.25855 0.086474 -0.091121 0.00017338 -0.040877 0.024651 -0.049946 -0.077607 0.2286 -0.25399 0.14478 0.13043 0.056502 0.16398 0.0054725 0.051957 0.13417 0.014112 -0.14717 0.11587 -0.092044 0.1182 -0.18649 -0.086893 0.027435 0.16293 -0.046683 0.24991 0.25022 -0.11986 -0.17294 -0.0208 -0.078033 -0.052145 0.077011 
we 0.20138 0.12903 -0.0409 -0.029903 -0.050186 -0.11174 0.079858 -0.11685 0.11315 -0.094327 0.026095 0.078184 0.0048744 0.16497 -0.08475 -0.12124 0.0095704 0.095816 0.012992 -0.1193 0.084003 0.041465 0.18792 -0.0029836 -0.32271 -0.08417 0.052404 0.08562 -0.0066608 0.003845 -0.067941 0.08465 0.081696 -0.204 0.075735 0.020475 0.21596 -0.1401 -0.024053 0.036559 0.40201 0.10695 0.0079256 -0.087164 0.018083 -0.21193 -0.031083 0.023084 -0.30968 -0.084812 0.092047 0.34679 -0.27112 -0.19386 0.045216 -0.21219 0.083804 0.037807 0.081134 0.27897 -0.011721 0.11968 0.27111 0.13384 -0.24349 0.29581 0.089152 -0.093752 0.0044947 -0.04339 0.041256 -0.065689 -0.088225 0.26534 -0.2876 0.16777 0.15026 0.066084 0.18274 0.016937 0.055765 0.16134 0.0094791 -0.16139 0.14044 -0.11447 0.151 -0.2125 -0.093035 0.039565 0.18188 -0.052496 0.2729 0.30301 -0.1245 -0.19552 -0.021491 -0.069595 -0.052637 0.08897 
your 0.1943 0.12685 -0.038555 -0.024172 -0.054283 -0.10476 0.075705 -0.11466 0.10739 -0.09051 0.022742 0.071391 0.0095677 0.16002 -0.088053 -0.11289 0.0019554 0.084406 0.013828 -0.11418 0.089083 0.045819 0.18712 -0.0071916 -0.31376 -0.072613 0.053789 0.077232 -0.0064767 0.0046136 -0.071442 0.088276 0.081199 -0.20181 0.073822 0.022221 0.20441 -0.12236 -0.029131 0.031165 0.38832 0.10981 0.0071491 -0.077192 0.019594 -0.21107 -0.03026 0.020958 -0.30529 -0.082585 0.084682 0.33602 -0.26444 -0.18854 0.046355 -0.20114 0.080284 0.040398 0.086379 0.27109 -0.012261 0.11018 0.2658 0.13902 -0.22671 0.28789 0.0885 -0.094795 0.0066184 -0.04688 0.035498 -0.064869 -0.085756 0.25107 -0.27921 0.15342 0.14689 0.069852 0.17771 0.01371 0.054774 0.15171 0.011725 -0.16019 0.13673 -0.10399 0.13247 -0.19977 -0.088526 0.034004 0.17904 -0.049955 0.26216 0.29304 -0.12552 -0.1896 -0.026099 -0.079852 -0.048747 0.090195 
Lausanne 0.21104 0.13774 -0.040957 -0.021115 -0.058469 -0.11046 0.081672 -0.12773 0.11935 -0.10275 0.023368 0.079685 0.016827 0.17565 -0.098959 -0.12235 -0.0038753 0.085895 0.013602 -0.13766 0.098538 0.050744 0.20738 -0.0050963 -0.33975 -0.083524 0.061692 0.084814 -0.0031327 0.0070872 -0.076837 0.092515 0.089274 -0.22201 0.077989 0.022408 0.22006 -0.13531 -0.030065 0.039657 0.42859 0.11796 0.0043847 -0.085635 0.020477 -0.23166 -0.034628 0.018902 -0.33662 -0.09393 0.089604 0.37641 -0.29565 -0.20031 0.049229 -0.21837 0.083218 0.046569 0.095379 0.29782 -0.0091325 0.12086 0.29334 0.15703 -0.24188 0.31747 0.10643 -0.10487 0.00050226 -0.05042 0.032168 -0.067005 -0.09722 0.27717 -0.30858 0.18131 0.16233 0.068561 0.19927 0.014896 0.064163 0.1639 0.014313 -0.17656 0.14575 -0.11361 0.14459 -0.23034 -0.10067 0.038697 0.20012 -0.053576 0.29871 0.31658 -0.1413 -0.21058 -0.026994 -0.09012 -0.060901 0.09625 
Avec 0.14536 0.091793 -0.028331 -0.012509 -0.045584 -0.0751 0.05196 -0.085281 0.086277 -0.074774 0.015384 0.054885 0.010717 0.12131 -0.068961 -0.085161 -0.0040641 0.06168 0.0065511 -0.097845 0.067011 0.034907 0.14363 -0.002994 -0.23808 -0.051474 0.044257 0.058749 -0.0062962 0.0069691 -0.055326 0.060485 0.064841 -0.15528 0.055069 0.018172 0.15337 -0.093035 -0.020964 0.029091 0.29972 0.083808 0.0038018 -0.054724 0.010878 -0.16236 -0.023084 0.011958 -0.2335 -0.067663 0.06374 0.25747 -0.21032 -0.1375 0.03679 -0.15168 0.053503 0.036606 0.070003 0.20878 -0.0071749 0.083311 0.20415 0.11169 -0.16518 0.21727 0.073078 -0.071459 0.0015548 -0.033639 0.022428 -0.042114 -0.067019 0.19064 -0.21502 0.12223 0.10943 0.050821 0.13826 0.0057684 0.0465 0.11105 0.013814 -0.11896 0.10144 -0.074703 0.098609 -0.15776 -0.071508 0.024671 0.13729 -0.040634 0.21011 0.21665 -0.094344 -0.14394 -0.019926 -0.063228 -0.044231 0.063631 
vous 0.17177 0.11242 -0.04019 -0.013287 -0.055268 -0.085652 0.062399 -0.10464 0.099277 -0.088603 0.021538 0.063763 0.018544 0.14327 -0.08229 -0.10357 -0.0046559 0.074033 0.0064243 -0.11877 0.081356 0.048928 0.17367 -0.0067324 -0.2813 -0.065181 0.055197 0.067837 -0.0047572 0.0087026 -0.06533 0.07845 0.077652 -0.18354 0.069046 0.019975 0.17805 -0.10882 -0.026189 0.030964 0.35544 0.096501 0.00063842 -0.066538 0.0084062 -0.19441 -0.029638 0.021151 -0.28212 -0.07809 0.069081 0.30962 -0.25049 -0.16454 0.042435 -0.18022 0.062236 0.04432 0.086068 0.25259 -0.0090807 0.09761 0.23896 0.13293 -0.19337 0.25826 0.091627 -0.09441 -0.00049665 -0.044812 0.022397 -0.049297 -0.077894 0.22377 -0.25945 0.14772 0.12977 0.058179 0.16682 0.0099513 0.056055 0.13129 0.018246 -0.14565 0.11942 -0.090013 0.11659 -0.18846 -0.090495 0.028816 0.16339 -0.046597 0.24933 0.25524 -0.11975 -0.1722 -0.021576 -0.07728 -0.05111 0.074971 
#innovation 0.18587 0.12087 -0.038388 -0.021778 -0.049378 -0.10005 0.076637 -0.11577 0.1046 -0.088013 0.02145 0.069108 0.0093475 0.1549 -0.086303 -0.11002 0.0047129 0.083397 0.009311 -0.11681 0.088066 0.043139 0.18185 -0.0079595 -0.30266 -0.074485 0.051514 0.079047 -0.0048161 0.0057885 -0.063343 0.080301 0.076566 -0.19558 0.07003 0.019848 0.19921 -0.12446 -0.025566 0.032427 0.37719 0.10551 0.0043958 -0.077522 0.017947 -0.20422 -0.027601 0.02079 -0.29603 -0.080618 0.084616 0.32648 -0.25639 -0.17754 0.047444 -0.19239 0.077898 0.041993 0.080445 0.26287 -0.014212 0.1122 0.25753 0.13139 -0.22142 0.27979 0.084601 -0.092032 0.0015106 -0.0461 0.033079 -0.060297 -0.086361 0.24896 -0.27303 0.15696 0.14558 0.064175 0.17229 0.01526 0.05673 0.15097 0.010529 -0.15613 0.1335 -0.10294 0.13457 -0.19667 -0.087653 0.032763 0.17384 -0.050388 0.26068 0.28398 -0.12109 -0.18595 -0.021228 -0.07793 -0.053354 0.088348 
talk 0.19629 0.12717 -0.038414 -0.029442 -0.047571 -0.1088 0.079557 -0.11587 0.10744 -0.094666 0.015676 0.071719 0.013161 0.16384 -0.087681 -0.11914 0.0067143 0.085743 0.012493 -0.12086 0.08785 0.044453 0.1883 -0.0069027 -0.31851 -0.077094 0.051499 0.075824 -0.011335 0.0062273 -0.064882 0.082142 0.077349 -0.20276 0.075986 0.018215 0.20526 -0.13187 -0.026149 0.034188 0.3929 0.10902 0.0087949 -0.083797 0.01664 -0.21408 -0.029605 0.021086 -0.31079 -0.08355 0.091829 0.34294 -0.2704 -0.19004 0.049496 -0.20662 0.081945 0.039316 0.07853 0.27489 -0.01377 0.12058 0.26918 0.1404 -0.23219 0.28949 0.089595 -0.096789 0.0010343 -0.050357 0.033633 -0.060909 -0.09148 0.26031 -0.28068 0.16605 0.15022 0.069293 0.18076 0.016154 0.060681 0.16001 0.0086675 -0.16555 0.13906 -0.11162 0.14794 -0.20444 -0.091233 0.033682 0.18057 -0.046778 0.26909 0.2998 -0.12152 -0.19125 -0.023525 -0.080796 -0.053075 0.092691 
next 0.19687 0.13165 -0.038995 -0.031873 -0.053696 -0.11059 0.081667 -0.12235 0.10788 -0.093695 0.021195 0.071005 0.010445 0.16435 -0.088999 -0.11664 0.0056241 0.085399 0.012275 -0.11955 0.08829 0.045723 0.19172 -0.0052797 -0.32001 -0.078671 0.051981 0.080243 -0.0044238 0.0007755 -0.068628 0.083646 0.079368 -0.20291 0.076234 0.020878 0.21194 -0.13267 -0.027023 0.036374 0.39788 0.112 0.005968 -0.083239 0.016065 -0.21334 -0.026482 0.021448 -0.311 -0.085567 0.094664 0.34297 -0.26771 -0.19041 0.048434 -0.20271 0.085174 0.038666 0.075892 0.2749 -0.015258 0.11675 0.27077 0.13803 -0.23289 0.28979 0.087204 -0.095528 0.00086487 -0.049455 0.03586 -0.065493 -0.094261 0.26418 -0.28321 0.16372 0.15352 0.073246 0.17979 0.016087 0.062744 0.16055 0.011579 -0.16052 0.1402 -0.10584 0.14057 -0.20831 -0.093497 0.037511 0.17937 -0.049095 0.2691 0.29914 -0.12607 -0.1922 -0.022665 -0.079952 -0.053354 0.089519 
avec 0.18451 0.11592 -0.036177 -0.020799 -0.053545 -0.093768 0.064839 -0.10875 0.10913 -0.09571 0.019844 0.068875 0.014933 0.15794 -0.08769 -0.10756 -0.0094924 0.074479 0.0072985 -0.13024 0.088613 0.051417 0.17956 -0.00096658 -0.30048 -0.07048 0.05642 0.075151 -0.010205 0.011469 -0.073014 0.081857 0.079887 -0.19338 0.067906 0.022461 0.19217 -0.11247 -0.029179 0.0373 0.38057 0.10766 0.0033667 -0.066953 0.011753 -0.20377 -0.032024 0.01948 -0.29618 -0.084372 0.073093 0.32802 -0.26594 -0.17149 0.047042 -0.19358 0.061614 0.045685 0.093857 0.25969 -0.0088786 0.098905 0.25584 0.14198 -0.20766 0.27819 0.095878 -0.092855 -0.0016687 -0.043318 0.025689 -0.053227 -0.081999 0.24025 -0.27613 0.15442 0.13485 0.062687 0.17881 0.0067002 0.055286 0.14031 0.017222 -0.1529 0.12913 -0.096008 0.12147 -0.20356 -0.092765 0.028954 0.17534 -0.048551 0.26663 0.26836 -0.12708 -0.18089 -0.024041 -0.077726 -0.05806 0.084814 
work 0.20478 0.13754 -0.044573 -0.026381 -0.056105 -0.11691 0.088076 -0.12723 0.11693 -0.1008 0.019747 0.075401 0.011435 0.173 -0.087837 -0.12353 0.012701 0.091366 0.013421 -0.1226 0.094249 0.046359 0.19334 -0.0076328 -0.3382 -0.086579 0.053767 0.083137 -0.0085217 0.0010937 -0.068167 0.080321 0.085982 -0.21718 0.08077 0.020673 0.21957 -0.14429 -0.023261 0.03262 0.41333 0.10791 0.0056359 -0.084436 0.021153 -0.2207 -0.024376 0.017041 -0.32724 -0.083535 0.099878 0.36677 -0.28181 -0.20191 0.050394 -0.2175 0.089433 0.036139 0.083484 0.28963 -0.014623 0.12816 0.28022 0.13937 -0.24105 0.30869 0.096095 -0.10377 -0.00014162 -0.052846 0.042258 -0.070532 -0.096575 0.27354 -0.30153 0.17589 0.15646 0.072218 0.19368 0.02334 0.066924 0.17128 0.010343 -0.16752 0.14827 -0.12001 0.15631 -0.22047 -0.094096 0.038466 0.18747 -0.051392 0.28042 0.31909 -0.12972 -0.20114 -0.022979 -0.079778 -0.060179 0.098953 
#epflcampus 0.17859 0.1154 -0.039231 -0.019602 -0.050242 -0.095576 0.069946 -0.10848 0.10033 -0.086905 0.019371 0.06731 0.010438 0.14936 -0.083986 -0.10396 0.0025886 0.078228 0.0096963 -0.11089 0.08445 0.042581 0.17142 -0.0054949 -0.2856 -0.072267 0.050616 0.075038 -0.0040332 0.0045579 -0.06032 0.077158 0.073843 -0.18652 0.068377 0.021629 0.19006 -0.11812 -0.026788 0.030653 0.36197 0.099232 0.0040646 -0.073276 0.016687 -0.19545 -0.024757 0.015657 -0.28411 -0.078069 0.07921 0.31271 -0.24855 -0.17252 0.044046 -0.18651 0.072439 0.040648 0.078056 0.25394 -0.012772 0.10351 0.24929 0.12874 -0.20891 0.26731 0.084556 -0.089489 0.0018468 -0.044065 0.029865 -0.059508 -0.082103 0.23818 -0.26084 0.15327 0.13701 0.061921 0.16527 0.014193 0.055578 0.14187 0.011276 -0.14829 0.12621 -0.097948 0.12507 -0.18793 -0.084028 0.031711 0.16576 -0.047705 0.24883 0.26883 -0.11634 -0.17572 -0.02249 -0.074174 -0.049853 0.081022 
my 0.1938 0.12375 -0.05342 -0.025604 -0.052367 -0.11185 0.079091 -0.1214 0.10559 -0.090741 0.016022 0.081909 0.0026902 0.15533 -0.09431 -0.11991 0.015382 0.095816 0.0015431 -0.11993 0.083284 0.040033 0.18554 -0.0025571 -0.32565 -0.078605 0.058429 0.080749 -0.0025406 0.0024722 -0.059496 0.079053 0.078124 -0.20399 0.064625 0.016257 0.21682 -0.13457 -0.031594 0.02953 0.39559 0.10674 0.01304 -0.084181 0.02107 -0.22202 -0.024344 0.026349 -0.30665 -0.082875 0.088243 0.32921 -0.26765 -0.18965 0.053529 -0.20813 0.079447 0.036079 0.076288 0.2652 -0.021268 0.11369 0.27444 0.13474 -0.23615 0.28217 0.088525 -0.091138 -0.0003139 -0.039387 0.028772 -0.075621 -0.094327 0.2587 -0.27352 0.15986 0.15473 0.072121 0.17909 0.012775 0.058027 0.15519 0.0051357 -0.16678 0.14711 -0.10928 0.15056 -0.19938 -0.094686 0.037756 0.1834 -0.050611 0.26361 0.30167 -0.1125 -0.19717 -0.023052 -0.080671 -0.049919 0.098919 
? 0.17645 0.10301 -0.029792 -0.017011 -0.048003 -0.094037 0.05991 -0.093716 0.090729 -0.089453 0.024424 0.066863 0.0030469 0.1369 -0.072905 -0.091393 -0.003476 0.063861 0.017843 -0.11365 0.086898 0.045887 0.1605 -0.0026155 -0.27527 -0.065491 0.056872 0.064056 -0.011119 0.013787 -0.066519 0.076196 0.072301 -0.17661 0.064197 0.0093695 0.17222 -0.10426 -0.022435 0.032343 0.34395 0.089798 0.0066036 -0.067191 0.014183 -0.1833 -0.021704 0.020533 -0.26382 -0.076473 0.071912 0.2946 -0.23876 -0.15906 0.038393 -0.17964 0.060612 0.030769 0.071872 0.24055 -0.0055195 0.09605 0.23302 0.12346 -0.19486 0.25338 0.08281 -0.084084 0.005806 -0.040526 0.033258 -0.041299 -0.070737 0.21624 -0.24499 0.14196 0.12566 0.051443 0.16453 0.0095169 0.052728 0.13129 0.0084896 -0.1375 0.11269 -0.091065 0.11404 -0.17444 -0.073952 0.031017 0.15937 -0.039086 0.23178 0.24712 -0.11287 -0.16896 -0.017245 -0.072324 -0.048601 0.07669 
research 0.20674 0.13475 -0.039403 -0.029386 -0.048157 -0.10977 0.085429 -0.12194 0.10813 -0.094492 0.018442 0.076506 0.0074677 0.16842 -0.092377 -0.11615 0.012344 0.093033 0.013532 -0.12039 0.096056 0.042165 0.19195 -0.010255 -0.32461 -0.084811 0.049731 0.085692 -0.0032913 0.0024255 -0.069024 0.080624 0.080294 -0.21449 0.07523 0.023318 0.22143 -0.13817 -0.026046 0.034735 0.40221 0.11114 0.0078102 -0.08374 0.021142 -0.21654 -0.027175 0.019505 -0.31478 -0.084779 0.097813 0.3504 -0.27338 -0.19648 0.050315 -0.20557 0.092693 0.03839 0.079825 0.27933 -0.013907 0.1241 0.27982 0.13997 -0.242 0.2994 0.085381 -0.096674 -0.00016205 -0.045873 0.038274 -0.071833 -0.095547 0.27112 -0.28405 0.16988 0.15798 0.072504 0.18507 0.019325 0.058559 0.16546 0.006315 -0.16189 0.1461 -0.11673 0.15227 -0.20952 -0.092377 0.035836 0.18658 -0.049465 0.27353 0.31045 -0.12366 -0.19953 -0.023851 -0.08196 -0.052811 0.097148 
Learning 0.21708 0.145 -0.04525 -0.028338 -0.058645 -0.11602 0.089409 -0.12812 0.11549 -0.10145 0.020154 0.085074 0.0092146 0.18156 -0.099619 -0.12867 0.0080101 0.097642 0.011325 -0.12859 0.099706 0.0475 0.20702 -0.0095327 -0.34503 -0.089067 0.054972 0.085353 -0.0058723 0.0039485 -0.066326 0.086072 0.085817 -0.22312 0.076463 0.025523 0.22921 -0.14991 -0.027167 0.038012 0.43355 0.12108 0.0097631 -0.095684 0.020645 -0.23229 -0.033956 0.022941 -0.33661 -0.096548 0.099648 0.38039 -0.29434 -0.21026 0.049131 -0.22419 0.092345 0.041121 0.089486 0.29887 -0.017052 0.13089 0.29649 0.15314 -0.25677 0.32005 0.095559 -0.099212 3.2724e-05 -0.053008 0.042304 -0.072301 -0.098732 0.29358 -0.30746 0.18203 0.16981 0.074563 0.19758 0.022718 0.062606 0.17465 0.014787 -0.17551 0.15179 -0.12137 0.15882 -0.22995 -0.09348 0.039907 0.19769 -0.055011 0.2947 0.32683 -0.13493 -0.21174 -0.022542 -0.088559 -0.063687 0.10021 
@dgt_switzerland 0.18024 0.11711 -0.035483 -0.020171 -0.050563 -0.10231 0.076051 -0.11396 0.10186 -0.089748 0.020868 0.064736 0.010024 0.15059 -0.079057 -0.10695 0.0037364 0.078816 0.013212 -0.11404 0.082888 0.042574 0.17834 -0.0066229 -0.29609 -0.074123 0.048897 0.074842 -0.006237 0.0021177 -0.062941 0.075918 0.074703 -0.19268 0.069227 0.019456 0.19341 -0.12826 -0.022621 0.029997 0.36912 0.1028 0.0041857 -0.07272 0.015431 -0.19651 -0.023942 0.019103 -0.2922 -0.079626 0.086178 0.32519 -0.2514 -0.17649 0.045201 -0.19056 0.074198 0.034883 0.076592 0.2608 -0.012676 0.10737 0.24723 0.13139 -0.21241 0.27377 0.085814 -0.090764 -0.00032195 -0.046127 0.032665 -0.059032 -0.087487 0.23858 -0.26702 0.15614 0.13925 0.065083 0.171 0.015145 0.058588 0.1506 0.012675 -0.15116 0.12993 -0.10511 0.13091 -0.1957 -0.084472 0.033585 0.16923 -0.046838 0.25521 0.27838 -0.11984 -0.17917 -0.022754 -0.076556 -0.05602 0.084452 
up 0.20194 0.13529 -0.039967 -0.03022 -0.056653 -0.11048 0.081831 -0.1228 0.11743 -0.10187 0.021841 0.076657 0.010485 0.16973 -0.10301 -0.11852 0.0092397 0.096366 0.0095545 -0.12481 0.094987 0.045263 0.19293 -0.0092135 -0.32706 -0.082642 0.060115 0.08221 -0.0013361 0.0022887 -0.067791 0.081152 0.08132 -0.20923 0.073829 0.02277 0.21682 -0.13265 -0.02879 0.030468 0.41143 0.11074 0.0072621 -0.088335 0.02032 -0.2224 -0.03186 0.025306 -0.31497 -0.085257 0.091912 0.357 -0.26997 -0.19752 0.053362 -0.20828 0.087708 0.046087 0.084029 0.28043 -0.017691 0.12682 0.27743 0.13832 -0.24745 0.3045 0.09572 -0.092414 -0.00017134 -0.046946 0.034665 -0.066943 -0.095449 0.26595 -0.2958 0.17256 0.16374 0.072523 0.18771 0.011328 0.06828 0.1619 0.0082188 -0.16532 0.14191 -0.11871 0.14344 -0.20956 -0.089212 0.042843 0.18394 -0.055338 0.27886 0.30588 -0.12143 -0.2 -0.022529 -0.076703 -0.055464 0.097296 
day 0.19973 0.12827 -0.039067 -0.029939 -0.055214 -0.10838 0.08163 -0.12009 0.10767 -0.093764 0.020663 0.06997 0.011697 0.1652 -0.090663 -0.11908 0.010128 0.091076 0.013496 -0.11472 0.090507 0.047788 0.1861 -0.0047791 -0.32335 -0.082776 0.053253 0.080497 -0.0047628 0.0053231 -0.065937 0.080815 0.076826 -0.20839 0.073066 0.022579 0.21125 -0.13924 -0.023736 0.029308 0.4009 0.10628 0.0098704 -0.08628 0.01984 -0.20711 -0.032195 0.021149 -0.31257 -0.08605 0.093518 0.34639 -0.27055 -0.19683 0.05057 -0.20351 0.084005 0.044213 0.087053 0.26944 -0.017128 0.12191 0.27399 0.14177 -0.23841 0.28963 0.0863 -0.096745 0.0023977 -0.045119 0.03808 -0.063724 -0.091826 0.26485 -0.28284 0.16926 0.15742 0.069565 0.18121 0.016362 0.053387 0.15819 0.011239 -0.1634 0.14327 -0.10915 0.14396 -0.21064 -0.091103 0.032438 0.18376 -0.052933 0.27297 0.29799 -0.12263 -0.19705 -0.02023 -0.075226 -0.052102 0.090237 
This 0.18933 0.12824 -0.038883 -0.026264 -0.046142 -0.10588 0.074908 -0.11194 0.10382 -0.091677 0.011625 0.072278 0.0052405 0.15416 -0.086611 -0.11174 0.010095 0.083719 0.0093856 -0.11387 0.086328 0.041649 0.18131 -0.0030964 -0.30295 -0.076088 0.047859 0.079525 -0.005584 0.0038682 -0.062162 0.076534 0.077886 -0.19487 0.070041 0.018657 0.20327 -0.13053 -0.025531 0.033546 0.37999 0.10401 0.0073234 -0.082279 0.014951 -0.19899 -0.026106 0.019308 -0.29316 -0.084042 0.09159 0.32819 -0.25824 -0.18696 0.047226 -0.19601 0.083272 0.042208 0.079955 0.26236 -0.015507 0.11564 0.26164 0.13054 -0.22985 0.27752 0.081336 -0.089647 -2.9022e-05 -0.042746 0.034643 -0.061452 -0.088525 0.24788 -0.27168 0.16021 0.14626 0.062904 0.17286 0.020469 0.055825 0.15244 0.0092717 -0.15086 0.13628 -0.10378 0.14176 -0.19728 -0.084324 0.036691 0.17028 -0.048822 0.25456 0.28777 -0.11822 -0.18596 -0.021159 -0.073245 -0.050131 0.091627 
Un 0.16739 0.10494 -0.033426 -0.020983 -0.045787 -0.090569 0.060171 -0.097446 0.097348 -0.088846 0.022974 0.060427 0.014509 0.13982 -0.077535 -0.10556 -0.0012767 0.069129 0.014204 -0.11471 0.081182 0.037479 0.17211 -0.0020906 -0.26948 -0.066948 0.050951 0.064236 -0.0025258 0.0036099 -0.061908 0.075033 0.073368 -0.17377 0.061998 0.018501 0.1822 -0.1068 -0.027161 0.035628 0.34485 0.093298 0.0010709 -0.06443 0.016561 -0.1874 -0.023456 0.016179 -0.26931 -0.070801 0.06791 0.29477 -0.24468 -0.15792 0.041102 -0.17569 0.063357 0.045283 0.080805 0.23947 -0.010431 0.091942 0.2352 0.12528 -0.18746 0.25447 0.090563 -0.084056 -0.0019669 -0.040684 0.026403 -0.045527 -0.076598 0.21801 -0.2492 0.1426 0.12447 0.055528 0.16366 0.0092224 0.049648 0.12488 0.011394 -0.1457 0.10965 -0.083447 0.11029 -0.1827 -0.083103 0.02447 0.15543 -0.038436 0.23356 0.24809 -0.11141 -0.1675 -0.020235 -0.074023 -0.051263 0.079307 
his 0.20943 0.13741 -0.041896 -0.030742 -0.048242 -0.11821 0.085468 -0.12458 0.11641 -0.093527 0.017158 0.074054 0.0090361 0.17075 -0.091682 -0.12157 0.012854 0.092926 0.013255 -0.12521 0.095712 0.045492 0.19295 -0.0066688 -0.3307 -0.082043 0.055228 0.090687 -0.0062613 0.002151 -0.068352 0.082349 0.084715 -0.20906 0.075161 0.023463 0.22446 -0.13997 -0.023694 0.036442 0.41523 0.11289 0.0079328 -0.087701 0.016034 -0.21709 -0.029925 0.02377 -0.32291 -0.090659 0.10081 0.3538 -0.27704 -0.20501 0.055588 -0.21143 0.091313 0.037874 0.084159 0.28464 -0.012161 0.12261 0.28099 0.14347 -0.24773 0.29732 0.092958 -0.10115 0.00039025 -0.049341 0.03743 -0.071247 -0.09641 0.2728 -0.28982 0.17593 0.16485 0.06944 0.18984 0.022523 0.059967 0.16689 0.0046132 -0.16443 0.14868 -0.11375 0.14879 -0.21505 -0.091129 0.039577 0.18627 -0.05354 0.27853 0.31432 -0.13103 -0.20143 -0.021549 -0.079266 -0.054356 0.097524 
out 0.21911 0.14498 -0.044507 -0.034743 -0.061044 -0.12277 0.089427 -0.13314 0.12402 -0.10515 0.024964 0.080525 0.0044859 0.18017 -0.10048 -0.12792 0.008539 0.095742 0.010397 -0.13089 0.097031 0.047957 0.20784 -0.0039546 -0.35155 -0.090677 0.052994 0.085948 -0.0026242 0.007547 -0.071725 0.085337 0.086154 -0.22391 0.083817 0.022052 0.2375 -0.15297 -0.025582 0.032913 0.43998 0.12153 0.0064823 -0.09273 0.021497 -0.22932 -0.034641 0.024803 -0.33949 -0.093923 0.10463 0.37696 -0.29754 -0.20841 0.053791 -0.22714 0.095794 0.048601 0.087575 0.30273 -0.015858 0.13497 0.30268 0.15237 -0.26119 0.32027 0.09769 -0.104 0.0017736 -0.053137 0.039426 -0.073598 -0.10348 0.29344 -0.3128 0.18599 0.17266 0.075092 0.19461 0.018645 0.063711 0.17493 0.01414 -0.17869 0.15731 -0.12263 0.16447 -0.23239 -0.099402 0.04343 0.19749 -0.055964 0.29886 0.33204 -0.13441 -0.21924 -0.024579 -0.08531 -0.059858 0.10613 
We 0.20351 0.13697 -0.033048 -0.031815 -0.049994 -0.11244 0.08702 -0.12097 0.11553 -0.090876 0.019633 0.076424 0.01103 0.17209 -0.08884 -0.11863 0.0058859 0.094214 0.012966 -0.11667 0.092902 0.044074 0.19514 -0.015594 -0.32584 -0.079282 0.052886 0.086616 -0.0075577 0.0031629 -0.074663 0.079242 0.081346 -0.20623 0.071793 0.024406 0.22267 -0.13466 -0.029843 0.034153 0.4051 0.10899 0.0064108 -0.095093 0.017912 -0.22493 -0.032422 0.019197 -0.31564 -0.091599 0.094356 0.35719 -0.27991 -0.20068 0.052684 -0.21823 0.085181 0.042532 0.081867 0.27809 -0.012902 0.12775 0.28362 0.14628 -0.24259 0.30136 0.089364 -0.096755 0.0081031 -0.0501 0.036133 -0.067979 -0.094935 0.26526 -0.2899 0.16412 0.14986 0.072378 0.18656 0.015741 0.057925 0.16157 0.015279 -0.1678 0.14423 -0.113 0.15159 -0.20386 -0.097998 0.035405 0.1875 -0.050533 0.27636 0.31116 -0.12486 -0.19555 -0.020712 -0.07806 -0.05343 0.093107 
but 0.20748 0.13535 -0.035883 -0.034715 -0.057787 -0.11442 0.083714 -0.12231 0.11291 -0.10479 0.019248 0.075872 0.0071163 0.16802 -0.093735 -0.11839 0.015708 0.09555 0.010953 -0.12467 0.085317 0.043955 0.19778 -0.0018771 -0.33712 -0.084263 0.054226 0.089316 -0.002319 0.0077725 -0.069582 0.089014 0.082148 -0.21509 0.080319 0.023725 0.22546 -0.14594 -0.027187 0.030946 0.42117 0.11084 0.0091324 -0.089821 0.021926 -0.21829 -0.033032 0.023805 -0.3211 -0.092886 0.099688 0.36121 -0.28613 -0.20037 0.056369 -0.21562 0.08925 0.048763 0.090292 0.29087 -0.015864 0.12905 0.28553 0.14095 -0.25609 0.30259 0.093978 -0.10197 -0.00096835 -0.055095 0.041155 -0.075081 -0.10346 0.2773 -0.30292 0.17559 0.1615 0.070634 0.18568 0.019529 0.062255 0.16819 0.0087806 -0.17292 0.14729 -0.11611 0.1491 -0.21847 -0.09298 0.042137 0.19086 -0.054051 0.28808 0.31601 -0.12631 -0.20508 -0.021344 -0.073681 -0.054063 0.10105 
Thanks 0.16467 0.10811 -0.03285 -0.021531 -0.042332 -0.091106 0.066979 -0.1004 0.08953 -0.081141 0.014613 0.058407 0.0077882 0.13846 -0.076569 -0.095921 0.0073839 0.074247 0.007131 -0.10242 0.078272 0.039369 0.15463 -0.0069319 -0.26509 -0.067537 0.045602 0.062149 -0.0014674 0.0036094 -0.054689 0.069911 0.065093 -0.17513 0.061543 0.016822 0.17443 -0.11523 -0.023726 0.026103 0.32939 0.088101 0.0066743 -0.067423 0.016824 -0.177 -0.024538 0.015346 -0.25888 -0.070255 0.074935 0.2857 -0.22875 -0.16068 0.041887 -0.17036 0.070046 0.035419 0.066587 0.23134 -0.01312 0.10007 0.22482 0.11869 -0.19381 0.24344 0.076262 -0.080556 0.0022518 -0.041669 0.02864 -0.050829 -0.079081 0.21927 -0.24002 0.14034 0.12622 0.057715 0.14988 0.014036 0.052689 0.13636 0.0098427 -0.13645 0.11586 -0.093774 0.1202 -0.1717 -0.073752 0.032787 0.15167 -0.042892 0.22805 0.24977 -0.10462 -0.16269 -0.021157 -0.064287 -0.049413 0.077958 
#AI 0.20296 0.13815 -0.037459 -0.02868 -0.059039 -0.11067 0.080304 -0.1194 0.10905 -0.096314 0.021965 0.074267 0.015094 0.16885 -0.09192 -0.11757 0.0068461 0.093854 0.014713 -0.12273 0.091518 0.046446 0.19305 -0.0089538 -0.32461 -0.07991 0.058737 0.086149 -0.0033582 0.005729 -0.067761 0.082846 0.089501 -0.20838 0.078088 0.019905 0.21294 -0.14421 -0.028435 0.029121 0.41096 0.11414 0.0090327 -0.084419 0.021055 -0.21786 -0.034534 0.020972 -0.31854 -0.083456 0.090198 0.35014 -0.27649 -0.18851 0.050158 -0.21305 0.089134 0.03922 0.083807 0.28327 -0.015311 0.12617 0.2799 0.14521 -0.24143 0.29959 0.095468 -0.097602 0.0011491 -0.045522 0.039997 -0.069258 -0.097907 0.26922 -0.29369 0.16462 0.15281 0.068494 0.1858 0.019919 0.065288 0.16139 0.010965 -0.16919 0.1426 -0.11076 0.14171 -0.21364 -0.094026 0.04007 0.18564 -0.054116 0.28285 0.30377 -0.12574 -0.19628 -0.028647 -0.080406 -0.060697 0.094978 
made 0.19973 0.12532 -0.043299 -0.026003 -0.054101 -0.11151 0.080878 -0.12058 0.11336 -0.10027 0.024803 0.074511 0.0086434 0.16782 -0.092789 -0.1199 0.0043358 0.088362 0.010383 -0.12191 0.091369 0.046405 0.19791 -0.0086499 -0.3205 -0.080753 0.055154 0.081227 -0.0068118 0.0049211 -0.071064 0.081924 0.078021 -0.2112 0.076665 0.023976 0.21157 -0.13381 -0.029918 0.032287 0.40374 0.10795 0.0047977 -0.081667 0.01552 -0.21447 -0.026459 0.022763 -0.31722 -0.084234 0.08826 0.35052 -0.27391 -0.19182 0.050457 -0.20983 0.084552 0.041252 0.085537 0.28251 -0.017502 0.11795 0.27384 0.14338 -0.2371 0.29772 0.095387 -0.099223 -0.00055808 -0.045841 0.031486 -0.065793 -0.099547 0.26271 -0.28929 0.17101 0.15072 0.070176 0.18322 0.01599 0.063927 0.15955 0.014794 -0.1645 0.14261 -0.11348 0.14288 -0.21343 -0.091928 0.032677 0.18501 -0.053059 0.27774 0.30423 -0.12666 -0.19563 -0.025293 -0.076653 -0.052462 0.096277 
see 0.19854 0.13036 -0.037348 -0.025932 -0.054766 -0.11134 0.075939 -0.11995 0.11042 -0.097732 0.020729 0.06952 0.0098531 0.16452 -0.087381 -0.11555 0.0027826 0.083452 0.015398 -0.12551 0.089377 0.047807 0.19135 -0.010879 -0.31726 -0.079759 0.054064 0.084553 0.00115 0.0034496 -0.069967 0.086021 0.081072 -0.20588 0.07707 0.021624 0.20875 -0.13411 -0.03072 0.037405 0.3962 0.11499 0.0052333 -0.078663 0.020324 -0.21694 -0.031534 0.017013 -0.31309 -0.085139 0.084499 0.34367 -0.27056 -0.19035 0.052957 -0.20628 0.084529 0.040691 0.089823 0.27723 -0.0095287 0.11201 0.27431 0.13852 -0.23509 0.29384 0.088703 -0.096688 0.00067352 -0.047389 0.035619 -0.064907 -0.095705 0.2681 -0.28604 0.16425 0.15308 0.066519 0.18783 0.015523 0.061824 0.15923 0.010169 -0.16787 0.13534 -0.10563 0.1359 -0.20866 -0.095209 0.037545 0.19002 -0.053386 0.27388 0.30183 -0.12925 -0.20098 -0.022553 -0.077014 -0.056513 0.088712 
#Lausanne 0.18707 0.12201 -0.036159 -0.018119 -0.052694 -0.098116 0.071525 -0.11305 0.10577 -0.091858 0.021022 0.069787 0.016297 0.1555 -0.087494 -0.10906 -0.0039033 0.075583 0.01245 -0.12272 0.087571 0.045991 0.1833 -0.0038115 -0.30213 -0.073841 0.054369 0.075577 -0.0032201 0.0074599 -0.06925 0.082071 0.080462 -0.19598 0.068746 0.019871 0.19552 -0.11825 -0.027149 0.034369 0.37894 0.10359 0.0036481 -0.074945 0.020017 -0.20498 -0.029768 0.017097 -0.29758 -0.083274 0.077853 0.33289 -0.2617 -0.17787 0.043284 -0.19435 0.072681 0.042299 0.086126 0.26487 -0.0075266 0.10645 0.26069 0.14 -0.213 0.28125 0.094116 -0.092394 0.00042439 -0.045416 0.029119 -0.05784 -0.08524 0.24504 -0.27412 0.15989 0.14348 0.061051 0.17677 0.012469 0.056572 0.14512 0.013103 -0.15641 0.12888 -0.10006 0.12617 -0.20535 -0.089865 0.034061 0.17693 -0.047994 0.26595 0.27858 -0.12582 -0.18592 -0.022516 -0.079588 -0.054076 0.085282 
one 0.18945 0.12258 -0.041633 -0.022521 -0.049762 -0.10073 0.075422 -0.11744 0.10771 -0.093239 0.016919 0.06866 0.0057106 0.15653 -0.087725 -0.11272 -0.00049289 0.081621 0.015412 -0.11686 0.08858 0.045274 0.18655 -0.0042711 -0.30735 -0.081282 0.051531 0.079957 -0.0059035 0.00030628 -0.062812 0.083396 0.080641 -0.19996 0.06934 0.019104 0.20368 -0.12682 -0.026414 0.034228 0.38532 0.10562 0.0028212 -0.079827 0.014451 -0.20997 -0.031389 0.016372 -0.30392 -0.082712 0.088211 0.33161 -0.26887 -0.18993 0.050277 -0.19945 0.080588 0.039727 0.078347 0.27112 -0.0090926 0.11073 0.26598 0.13533 -0.22449 0.28499 0.092972 -0.096769 -0.00076188 -0.04675 0.03454 -0.064214 -0.086899 0.25401 -0.27882 0.15768 0.14948 0.066989 0.17615 0.021413 0.057639 0.15344 0.0095111 -0.16244 0.1398 -0.10176 0.1337 -0.20348 -0.090522 0.034906 0.17651 -0.052162 0.26301 0.28678 -0.12322 -0.19185 -0.021243 -0.081015 -0.052722 0.092645 
aux 0.16768 0.1091 -0.031955 -0.015143 -0.055082 -0.084163 0.058537 -0.10228 0.10098 -0.083705 0.023724 0.064638 0.011468 0.14055 -0.076421 -0.10241 -0.0094121 0.068821 0.0079043 -0.11346 0.079787 0.045282 0.1711 -0.0025574 -0.27419 -0.062094 0.053454 0.069582 -0.0068751 0.00069685 -0.062139 0.077342 0.073555 -0.17764 0.061295 0.017993 0.17387 -0.10648 -0.024032 0.029859 0.34434 0.094884 0.0017751 -0.067819 0.01395 -0.19095 -0.029299 0.019477 -0.27272 -0.071566 0.064174 0.29933 -0.24355 -0.15914 0.040814 -0.17747 0.058787 0.040525 0.088542 0.23884 -0.014785 0.097103 0.23361 0.12755 -0.19037 0.25153 0.08942 -0.088008 -0.0015529 -0.039281 0.022151 -0.047146 -0.076492 0.21888 -0.2522 0.14387 0.12821 0.056595 0.16092 0.005611 0.053826 0.12692 0.013337 -0.14386 0.11563 -0.087603 0.11292 -0.18637 -0.081933 0.030412 0.16151 -0.044617 0.24186 0.24769 -0.11555 -0.17266 -0.021352 -0.072558 -0.052766 0.074163 
